<MethodSetup Method="BDT::BDT"><Variables NVar="12"><Variable Expression="mu_eta" Internal="mu_eta" Label="mu_eta" Max="0.0e+00" Min="0.0e+00" Title="mu_eta" Type="F" Unit="" VarIndex="0" /><Variable Expression="mu_N_hits" Internal="mu_N_hits" Label="mu_N_hits" Max="0.0e+00" Min="0.0e+00" Title="mu_N_hits" Type="F" Unit="" VarIndex="1" /><Variable Expression="mu_N_pixel_hits" Internal="mu_N_pixel_hits" Label="mu_N_pixel_hits" Max="0.0e+00" Min="0.0e+00" Title="mu_N_pixel_hits" Type="F" Unit="" VarIndex="2" /><Variable Expression="mu_N_tracker_hits" Internal="mu_N_tracker_hits" Label="mu_N_tracker_hits" Max="0.0e+00" Min="0.0e+00" Title="mu_N_tracker_hits" Type="F" Unit="" VarIndex="3" /><Variable Expression="mu_chi_square" Internal="mu_chi_square" Label="mu_chi_square" Max="0.0e+00" Min="0.0e+00" Title="mu_chi_square" Type="F" Unit="" VarIndex="4" /><Variable Expression="mu_pf_photon_iso" Internal="mu_pf_photon_iso" Label="mu_pf_photon_iso" Max="0.0e+00" Min="0.0e+00" Title="mu_pf_photon_iso" Type="F" Unit="" VarIndex="5" /><Variable Expression="mu_pf_charged_had_iso" Internal="mu_pf_charged_had_iso" Label="mu_pf_charged_had_iso" Max="0.0e+00" Min="0.0e+00" Title="mu_pf_charged_had_iso" Type="F" Unit="" VarIndex="6" /><Variable Expression="mu_pf_neutral_had_iso" Internal="mu_pf_neutral_had_iso" Label="mu_pf_neutral_had_iso" Max="0.0e+00" Min="0.0e+00" Title="mu_pf_neutral_had_iso" Type="F" Unit="" VarIndex="7" /><Variable Expression="mu_rho" Internal="mu_rho" Label="mu_rho" Max="0.0e+00" Min="0.0e+00" Title="mu_rho" Type="F" Unit="" VarIndex="8" /><Variable Expression="mu_sip" Internal="mu_sip" Label="mu_sip" Max="0.0e+00" Min="0.0e+00" Title="mu_sip" Type="F" Unit="" VarIndex="9" /><Variable Expression="mu_dxy" Internal="mu_dxy" Label="mu_dxy" Max="0.0e+00" Min="0.0e+00" Title="mu_dxy" Type="F" Unit="" VarIndex="10" /><Variable Expression="mu_dz" Internal="mu_dz" Label="mu_dz" Max="0.0e+00" Min="0.0e+00" Title="mu_dz" Type="F" Unit="" VarIndex="11" /></Variables><GeneralInfo><Info name="Creator" value="xgboost2TMVA" /><Info name="AnalysisType" value="Classification" /></GeneralInfo><Options><Option modified="No" name="NodePurityLimit">5.00e-01</Option><Option modified="Yes" name="BoostType">Grad</Option></Options><Weights AnalysisType="1" NTrees="203"><BinaryTree boostWeight="1.0e+00" itree="0" type="DecisionTree"><Node Cut="12" IVar="1" NCoef="0" cType="1" depth="0" nType="0" pos="s" purity="0.0e+00" res="0.0e+00" rms="0.0e+00"><Node Cut="9" IVar="1" NCoef="0" cType="1" depth="1" nType="0" pos="l" purity="0.0e+00" res="0.0e+00" rms="0.0e+00"><Node Cut="1.83256531" IVar="6" NCoef="0" cType="1" depth="2" nType="0" pos="l" purity="0.0e+00" res="0.0e+00" rms="0.0e+00"><Node Cut="0.00132924481" IVar="10" NCoef="0" cType="1" depth="3" nType="0" pos="l" purity="0.0e+00" res="0.0e+00" rms="0.0e+00"><Node Cut="8" IVar="1" NCoef="0" cType="1" depth="4" nType="0" pos="l" purity="0.0e+00" res="0.0e+00" rms="0.0e+00"><Node Cut="1.99297833" IVar="5" NCoef="0" cType="1" depth="5" nType="0" pos="l" purity="0.0e+00" res="0.0e+00" rms="0.0e+00"><Node Cut="0.0e+00" IVar="-1" NCoef="0" cType="1" depth="6" nType="-99" pos="l" purity="0.0e+00" res="-0.46867764" rms="0.0e+00" /><Node Cut="0.0e+00" IVar="-1" NCoef="0" cType="1" depth="6" nType="-99" pos="r" purity="0.0e+00" res="-0.573891819" rms="0.0e+00" /></Node><Node Cut="3.82752466" IVar="4" NCoef="0" cType="1" depth="5" nType="0" pos="r" purity="0.0e+00" res="0.0e+00" rms="0.0e+00"><Node Cut="0.0e+00" IVar="-1" NCoef="0" cType="1" depth="6" nType="-99" pos="l" purity="0.0e+00" res="0.504386783" rms="0.0e+00" /><Node Cut="0.0e+00" IVar="-1" NCoef="0" cType="1" depth="6" nType="-99" pos="r" purity="0.0e+00" res="-0.559111118" rms="0.0e+00" /></Node></Node><Node Cut="0.00497809891" IVar="10" NCoef="0" cType="1" depth="4" nType="0" pos="r" purity="0.0e+00" res="0.0e+00" rms="0.0e+00"><Node Cut="8" IVar="1" NCoef="0" cType="1" depth="5" nType="0" pos="l" purity="0.0e+00" res="0.0e+00" rms="0.0e+00"><Node Cut="0.0e+00" IVar="-1" NCoef="0" cType="1" depth="6" nType="-99" pos="l" purity="0.0e+00" res="-0.572004795" rms="0.0e+00" /><Node Cut="0.0e+00" IVar="-1" NCoef="0" cType="1" depth="6" nType="-99" pos="r" purity="0.0e+00" res="-0.383170962" rms="0.0e+00" /></Node><Node Cut="0.0e+00" IVar="-1" NCoef="0" cType="1" depth="5" nType="-99" pos="r" purity="0.0e+00" res="-0.596474946" rms="0.0e+00" /></Node></Node><Node Cut="3.47430468" IVar="6" NCoef="0" cType="1" depth="3" nType="0" pos="r" purity="0.0e+00" res="0.0e+00" rms="0.0e+00"><Node Cut="0.000875487574" IVar="10" NCoef="0" cType="1" depth="4" nType="0" pos="l" purity="0.0e+00" res="0.0e+00" rms="0.0e+00"><Node Cut="0.724435866" IVar="5" NCoef="0" cType="1" depth="5" nType="0" pos="l" purity="0.0e+00" res="0.0e+00" rms="0.0e+00"><Node Cut="0.0e+00" IVar="-1" NCoef="0" cType="1" depth="6" nType="-99" pos="l" purity="0.0e+00" res="-0.509734511" rms="0.0e+00" /><Node Cut="0.0e+00" IVar="-1" NCoef="0" cType="1" depth="6" nType="-99" pos="r" purity="0.0e+00" res="-0.580212772" rms="0.0e+00" /></Node><Node Cut="0.0e+00" IVar="-1" NCoef="0" cType="1" depth="5" nType="-99" pos="r" purity="0.0e+00" res="-0.591806233" rms="0.0e+00" /></Node><Node Cut="0.0e+00" IVar="-1" NCoef="0" cType="1" depth="4" nType="-99" pos="r" purity="0.0e+00" res="-0.599037588" rms="0.0e+00" /></Node></Node><Node Cut="2.59899664" IVar="4" NCoef="0" cType="1" depth="2" nType="0" pos="r" purity="0.0e+00" res="0.0e+00" rms="0.0e+00"><Node Cut="3.5438199" IVar="6" NCoef="0" cType="1" depth="3" nType="0" pos="l" purity="0.0e+00" res="0.0e+00" rms="0.0e+00"><Node Cut="0.00928416289" IVar="10" NCoef="0" cType="1" depth="4" nType="0" pos="l" purity="0.0e+00" res="0.0e+00" rms="0.0e+00"><Node Cut="3.28498507" IVar="5" NCoef="0" cType="1" depth="5" nType="0" pos="l" purity="0.0e+00" res="0.0e+00" rms="0.0e+00"><Node Cut="0.0e+00" IVar="-1" NCoef="0" cType="1" depth="6" nType="-99" pos="l" purity="0.0e+00" res="0.565411806" rms="0.0e+00" /><Node Cut="0.0e+00" IVar="-1" NCoef="0" cType="1" depth="6" nType="-99" pos="r" purity="0.0e+00" res="0.155121952" rms="0.0e+00" /></Node><Node Cut="2.57942724" IVar="9" NCoef="0" cType="1" depth="5" nType="0" pos="r" purity="0.0e+00" res="0.0e+00" rms="0.0e+00"><Node Cut="0.0e+00" IVar="-1" NCoef="0" cType="1" depth="6" nType="-99" pos="l" purity="0.0e+00" res="0.313432842" rms="0.0e+00" /><Node Cut="0.0e+00" IVar="-1" NCoef="0" cType="1" depth="6" nType="-99" pos="r" purity="0.0e+00" res="-0.43657589" rms="0.0e+00" /></Node></Node><Node Cut="5.10480595" IVar="6" NCoef="0" cType="1" depth="4" nType="0" pos="r" purity="0.0e+00" res="0.0e+00" rms="0.0e+00"><Node Cut="0.00249386858" IVar="10" NCoef="0" cType="1" depth="5" nType="0" pos="l" purity="0.0e+00" res="0.0e+00" rms="0.0e+00"><Node Cut="0.0e+00" IVar="-1" NCoef="0" cType="1" depth="6" nType="-99" pos="l" purity="0.0e+00" res="0.128000006" rms="0.0e+00" /><Node Cut="0.0e+00" IVar="-1" NCoef="0" cType="1" depth="6" nType="-99" pos="r" purity="0.0e+00" res="-0.466666698" rms="0.0e+00" /></Node><Node Cut="0.00109842408" IVar="10" NCoef="0" cType="1" depth="5" nType="0" pos="r" purity="0.0e+00" res="0.0e+00" rms="0.0e+00"><Node Cut="0.0e+00" IVar="-1" NCoef="0" cType="1" depth="6" nType="-99" pos="l" purity="0.0e+00" res="-0.430463582" rms="0.0e+00" /><Node Cut="0.0e+00" IVar="-1" NCoef="0" cType="1" depth="6" nType="-99" pos="r" purity="0.0e+00" res="-0.578836024" rms="0.0e+00" /></Node></Node></Node><Node Cut="11.3747902" IVar="4" NCoef="0" cType="1" depth="3" nType="0" pos="r" purity="0.0e+00" res="0.0e+00" rms="0.0e+00"><Node Cut="2.02428055" IVar="6" NCoef="0" cType="1" depth="4" nType="0" pos="l" purity="0.0e+00" res="0.0e+00" rms="0.0e+00"><Node Cut="1.57699776" IVar="5" NCoef="0" cType="1" depth="5" nType="0" pos="l" purity="0.0e+00" res="0.0e+00" rms="0.0e+00"><Node Cut="0.0e+00" IVar="-1" NCoef="0" cType="1" depth="6" nType="-99" pos="l" purity="0.0e+00" res="0.230225727" rms="0.0e+00" /><Node Cut="0.0e+00" IVar="-1" NCoef="0" cType="1" depth="6" nType="-99" pos="r" purity="0.0e+00" res="-0.414492756" rms="0.0e+00" /></Node><Node Cut="2.960042" IVar="6" NCoef="0" cType="1" depth="5" nType="0" pos="r" purity="0.0e+00" res="0.0e+00" rms="0.0e+00"><Node Cut="0.0e+00" IVar="-1" NCoef="0" cType="1" depth="6" nType="-99" pos="l" purity="0.0e+00" res="-0.336585373" rms="0.0e+00" /><Node Cut="0.0e+00" IVar="-1" NCoef="0" cType="1" depth="6" nType="-99" pos="r" purity="0.0e+00" res="-0.593713641" rms="0.0e+00" /></Node></Node><Node Cut="0.500290096" IVar="5" NCoef="0" cType="1" depth="4" nType="0" pos="r" purity="0.0e+00" res="0.0e+00" rms="0.0e+00"><Node Cut="29.4766159" IVar="4" NCoef="0" cType="1" depth="5" nType="0" pos="l" purity="0.0e+00" res="0.0e+00" rms="0.0e+00"><Node Cut="0.0e+00" IVar="-1" NCoef="0" cType="1" depth="6" nType="-99" pos="l" purity="0.0e+00" res="-0.222471923" rms="0.0e+00" /><Node Cut="0.0e+00" IVar="-1" NCoef="0" cType="1" depth="6" nType="-99" pos="r" purity="0.0e+00" res="-0.536339521" rms="0.0e+00" /></Node><Node Cut="1.6613102" IVar="5" NCoef="0" cType="1" depth="5" nType="0" pos="r" purity="0.0e+00" res="0.0e+00" rms="0.0e+00"><Node Cut="0.0e+00" IVar="-1" NCoef="0" cType="1" depth="6" nType="-99" pos="l" purity="0.0e+00" res="-0.550295889" rms="0.0e+00" /><Node Cut="0.0e+00" IVar="-1" NCoef="0" cType="1" depth="6" nType="-99" pos="r" purity="0.0e+00" res="-0.596915901" rms="0.0e+00" /></Node></Node></Node></Node></Node><Node Cut="3.2885251" IVar="6" NCoef="0" cType="1" depth="1" nType="0" pos="r" purity="0.0e+00" res="0.0e+00" rms="0.0e+00"><Node Cut="5.30675268" IVar="4" NCoef="0" cType="1" depth="2" nType="0" pos="l" purity="0.0e+00" res="0.0e+00" rms="0.0e+00"><Node Cut="0.00828918628" IVar="10" NCoef="0" cType="1" depth="3" nType="0" pos="l" purity="0.0e+00" res="0.0e+00" rms="0.0e+00"><Node Cut="4.27392769" IVar="5" NCoef="0" cType="1" depth="4" nType="0" pos="l" purity="0.0e+00" res="0.0e+00" rms="0.0e+00"><Node Cut="5.73879147" IVar="9" NCoef="0" cType="1" depth="5" nType="0" pos="l" purity="0.0e+00" res="0.0e+00" rms="0.0e+00"><Node Cut="0.0e+00" IVar="-1" NCoef="0" cType="1" depth="6" nType="-99" pos="l" purity="0.0e+00" res="0.571755171" rms="0.0e+00" /><Node Cut="0.0e+00" IVar="-1" NCoef="0" cType="1" depth="6" nType="-99" pos="r" purity="0.0e+00" res="0.274604589" rms="0.0e+00" /></Node><Node Cut="1.61341357" IVar="9" NCoef="0" cType="1" depth="5" nType="0" pos="r" purity="0.0e+00" res="0.0e+00" rms="0.0e+00"><Node Cut="0.0e+00" IVar="-1" NCoef="0" cType="1" depth="6" nType="-99" pos="l" purity="0.0e+00" res="0.318681359" rms="0.0e+00" /><Node Cut="0.0e+00" IVar="-1" NCoef="0" cType="1" depth="6" nType="-99" pos="r" purity="0.0e+00" res="-0.188362136" rms="0.0e+00" /></Node></Node><Node Cut="4.25792599" IVar="9" NCoef="0" cType="1" depth="4" nType="0" pos="r" purity="0.0e+00" res="0.0e+00" rms="0.0e+00"><Node Cut="2.04691792" IVar="5" NCoef="0" cType="1" depth="5" nType="0" pos="l" purity="0.0e+00" res="0.0e+00" rms="0.0e+00"><Node Cut="0.0e+00" IVar="-1" NCoef="0" cType="1" depth="6" nType="-99" pos="l" purity="0.0e+00" res="0.284423202" rms="0.0e+00" /><Node Cut="0.0e+00" IVar="-1" NCoef="0" cType="1" depth="6" nType="-99" pos="r" purity="0.0e+00" res="-0.324228525" rms="0.0e+00" /></Node><Node Cut="0.0119098434" IVar="10" NCoef="0" cType="1" depth="5" nType="0" pos="r" purity="0.0e+00" res="0.0e+00" rms="0.0e+00"><Node Cut="0.0e+00" IVar="-1" NCoef="0" cType="1" depth="6" nType="-99" pos="l" purity="0.0e+00" res="-0.153361425" rms="0.0e+00" /><Node Cut="0.0e+00" IVar="-1" NCoef="0" cType="1" depth="6" nType="-99" pos="r" purity="0.0e+00" res="-0.525770009" rms="0.0e+00" /></Node></Node></Node><Node Cut="16.0607586" IVar="4" NCoef="0" cType="1" depth="3" nType="0" pos="r" purity="0.0e+00" res="0.0e+00" rms="0.0e+00"><Node Cut="1.34782386" IVar="5" NCoef="0" cType="1" depth="4" nType="0" pos="l" purity="0.0e+00" res="0.0e+00" rms="0.0e+00"><Node Cut="0.00199774886" IVar="10" NCoef="0" cType="1" depth="5" nType="0" pos="l" purity="0.0e+00" res="0.0e+00" rms="0.0e+00"><Node Cut="0.0e+00" IVar="-1" NCoef="0" cType="1" depth="6" nType="-99" pos="l" purity="0.0e+00" res="0.211072668" rms="0.0e+00" /><Node Cut="0.0e+00" IVar="-1" NCoef="0" cType="1" depth="6" nType="-99" pos="r" purity="0.0e+00" res="-0.375674069" rms="0.0e+00" /></Node><Node Cut="3.84485531" IVar="5" NCoef="0" cType="1" depth="5" nType="0" pos="r" purity="0.0e+00" res="0.0e+00" rms="0.0e+00"><Node Cut="0.0e+00" IVar="-1" NCoef="0" cType="1" depth="6" nType="-99" pos="l" purity="0.0e+00" res="-0.355774641" rms="0.0e+00" /><Node Cut="0.0e+00" IVar="-1" NCoef="0" cType="1" depth="6" nType="-99" pos="r" purity="0.0e+00" res="-0.550838053" rms="0.0e+00" /></Node></Node><Node Cut="37.4745407" IVar="4" NCoef="0" cType="1" depth="4" nType="0" pos="r" purity="0.0e+00" res="0.0e+00" rms="0.0e+00"><Node Cut="0.982479095" IVar="5" NCoef="0" cType="1" depth="5" nType="0" pos="l" purity="0.0e+00" res="0.0e+00" rms="0.0e+00"><Node Cut="0.0e+00" IVar="-1" NCoef="0" cType="1" depth="6" nType="-99" pos="l" purity="0.0e+00" res="-0.363069534" rms="0.0e+00" /><Node Cut="0.0e+00" IVar="-1" NCoef="0" cType="1" depth="6" nType="-99" pos="r" purity="0.0e+00" res="-0.57043165" rms="0.0e+00" /></Node><Node Cut="0.580000997" IVar="5" NCoef="0" cType="1" depth="5" nType="0" pos="r" purity="0.0e+00" res="0.0e+00" rms="0.0e+00"><Node Cut="0.0e+00" IVar="-1" NCoef="0" cType="1" depth="6" nType="-99" pos="l" purity="0.0e+00" res="-0.550990343" rms="0.0e+00" /><Node Cut="0.0e+00" IVar="-1" NCoef="0" cType="1" depth="6" nType="-99" pos="r" purity="0.0e+00" res="-0.593863904" rms="0.0e+00" /></Node></Node></Node></Node><Node Cut="5.59506226" IVar="6" NCoef="0" cType="1" depth="2" nType="0" pos="r" purity="0.0e+00" res="0.0e+00" rms="0.0e+00"><Node Cut="0.00211826665" IVar="10" NCoef="0" cType="1" depth="3" nType="0" pos="l" purity="0.0e+00" res="0.0e+00" rms="0.0e+00"><Node Cut="2.59887791" IVar="4" NCoef="0" cType="1" depth="4" nType="0" pos="l" purity="0.0e+00" res="0.0e+00" rms="0.0e+00"><Node Cut="3.35187483" IVar="5" NCoef="0" cType="1" depth="5" nType="0" pos="l" purity="0.0e+00" res="0.0e+00" rms="0.0e+00"><Node Cut="0.0e+00" IVar="-1" NCoef="0" cType="1" depth="6" nType="-99" pos="l" purity="0.0e+00" res="0.264999688" rms="0.0e+00" /><Node Cut="0.0e+00" IVar="-1" NCoef="0" cType="1" depth="6" nType="-99" pos="r" purity="0.0e+00" res="-0.240154773" rms="0.0e+00" /></Node><Node Cut="3.5840013" IVar="4" NCoef="0" cType="1" depth="5" nType="0" pos="r" purity="0.0e+00" res="0.0e+00" rms="0.0e+00"><Node Cut="0.0e+00" IVar="-1" NCoef="0" cType="1" depth="6" nType="-99" pos="l" purity="0.0e+00" res="-0.343040705" rms="0.0e+00" /><Node Cut="0.0e+00" IVar="-1" NCoef="0" cType="1" depth="6" nType="-99" pos="r" purity="0.0e+00" res="-0.573269725" rms="0.0e+00" /></Node></Node><Node Cut="0.00601021759" IVar="10" NCoef="0" cType="1" depth="4" nType="0" pos="r" purity="0.0e+00" res="0.0e+00" rms="0.0e+00"><Node Cut="1.8631897" IVar="5" NCoef="0" cType="1" depth="5" nType="0" pos="l" purity="0.0e+00" res="0.0e+00" rms="0.0e+00"><Node Cut="0.0e+00" IVar="-1" NCoef="0" cType="1" depth="6" nType="-99" pos="l" purity="0.0e+00" res="-0.239852399" rms="0.0e+00" /><Node Cut="0.0e+00" IVar="-1" NCoef="0" cType="1" depth="6" nType="-99" pos="r" purity="0.0e+00" res="-0.507121861" rms="0.0e+00" /></Node><Node Cut="0.00868254155" IVar="10" NCoef="0" cType="1" depth="5" nType="0" pos="r" purity="0.0e+00" res="0.0e+00" rms="0.0e+00"><Node Cut="0.0e+00" IVar="-1" NCoef="0" cType="1" depth="6" nType="-99" pos="l" purity="0.0e+00" res="-0.519205868" rms="0.0e+00" /><Node Cut="0.0e+00" IVar="-1" NCoef="0" cType="1" depth="6" nType="-99" pos="r" purity="0.0e+00" res="-0.589831531" rms="0.0e+00" /></Node></Node></Node><Node Cut="0.00151489023" IVar="10" NCoef="0" cType="1" depth="3" nType="0" pos="r" purity="0.0e+00" res="0.0e+00" rms="0.0e+00"><Node Cut="1.82706833" IVar="4" NCoef="0" cType="1" depth="4" nType="0" pos="l" purity="0.0e+00" res="0.0e+00" rms="0.0e+00"><Node Cut="8.91605377" IVar="6" NCoef="0" cType="1" depth="5" nType="0" pos="l" purity="0.0e+00" res="0.0e+00" rms="0.0e+00"><Node Cut="0.0e+00" IVar="-1" NCoef="0" cType="1" depth="6" nType="-99" pos="l" purity="0.0e+00" res="-0.182007551" rms="0.0e+00" /><Node Cut="0.0e+00" IVar="-1" NCoef="0" cType="1" depth="6" nType="-99" pos="r" purity="0.0e+00" res="-0.477048904" rms="0.0e+00" /></Node><Node Cut="2.61052918" IVar="4" NCoef="0" cType="1" depth="5" nType="0" pos="r" purity="0.0e+00" res="0.0e+00" rms="0.0e+00"><Node Cut="0.0e+00" IVar="-1" NCoef="0" cType="1" depth="6" nType="-99" pos="l" purity="0.0e+00" res="-0.531005383" rms="0.0e+00" /><Node Cut="0.0e+00" IVar="-1" NCoef="0" cType="1" depth="6" nType="-99" pos="r" purity="0.0e+00" res="-0.596567452" rms="0.0e+00" /></Node></Node><Node Cut="0.00469861552" IVar="10" NCoef="0" cType="1" depth="4" nType="0" pos="r" purity="0.0e+00" res="0.0e+00" rms="0.0e+00"><Node Cut="8.40620613" IVar="6" NCoef="0" cType="1" depth="5" nType="0" pos="l" purity="0.0e+00" res="0.0e+00" rms="0.0e+00"><Node Cut="0.0e+00" IVar="-1" NCoef="0" cType="1" depth="6" nType="-99" pos="l" purity="0.0e+00" res="-0.482431889" rms="0.0e+00" /><Node Cut="0.0e+00" IVar="-1" NCoef="0" cType="1" depth="6" nType="-99" pos="r" purity="0.0e+00" res="-0.576269925" rms="0.0e+00" /></Node><Node Cut="0.0068248217" IVar="10" NCoef="0" cType="1" depth="5" nType="0" pos="r" purity="0.0e+00" res="0.0e+00" rms="0.0e+00"><Node Cut="0.0e+00" IVar="-1" NCoef="0" cType="1" depth="6" nType="-99" pos="l" purity="0.0e+00" res="-0.58536309" rms="0.0e+00" /><Node Cut="0.0e+00" IVar="-1" NCoef="0" cType="1" depth="6" nType="-99" pos="r" purity="0.0e+00" res="-0.598022878" rms="0.0e+00" /></Node></Node></Node></Node></Node></Node></BinaryTree><BinaryTree boostWeight="1.0e+00" itree="1" type="DecisionTree"><Node Cut="12" IVar="1" NCoef="0" cType="1" depth="0" nType="0" pos="s" purity="0.0e+00" res="0.0e+00" rms="0.0e+00"><Node Cut="9" IVar="1" NCoef="0" cType="1" depth="1" nType="0" pos="l" purity="0.0e+00" res="0.0e+00" rms="0.0e+00"><Node Cut="1.88498998" IVar="6" NCoef="0" cType="1" depth="2" nType="0" pos="l" purity="0.0e+00" res="0.0e+00" rms="0.0e+00"><Node Cut="0.00115658133" IVar="10" NCoef="0" cType="1" depth="3" nType="0" pos="l" purity="0.0e+00" res="0.0e+00" rms="0.0e+00"><Node Cut="1.21688747" IVar="0" NCoef="0" cType="1" depth="4" nType="0" pos="l" purity="0.0e+00" res="0.0e+00" rms="0.0e+00"><Node Cut="-1.20331979" IVar="0" NCoef="0" cType="1" depth="5" nType="0" pos="l" purity="0.0e+00" res="0.0e+00" rms="0.0e+00"><Node Cut="0.0e+00" IVar="-1" NCoef="0" cType="1" depth="6" nType="-99" pos="l" purity="0.0e+00" res="-0.431755394" rms="0.0e+00" /><Node Cut="0.0e+00" IVar="-1" NCoef="0" cType="1" depth="6" nType="-99" pos="r" purity="0.0e+00" res="-0.223017529" rms="0.0e+00" /></Node><Node Cut="6" IVar="1" NCoef="0" cType="1" depth="5" nType="0" pos="r" purity="0.0e+00" res="0.0e+00" rms="0.0e+00"><Node Cut="0.0e+00" IVar="-1" NCoef="0" cType="1" depth="6" nType="-99" pos="l" purity="0.0e+00" res="-0.45436123" rms="0.0e+00" /><Node Cut="0.0e+00" IVar="-1" NCoef="0" cType="1" depth="6" nType="-99" pos="r" purity="0.0e+00" res="-0.274912566" rms="0.0e+00" /></Node></Node><Node Cut="0.00226294319" IVar="10" NCoef="0" cType="1" depth="4" nType="0" pos="r" purity="0.0e+00" res="0.0e+00" rms="0.0e+00"><Node Cut="1.35243297" IVar="5" NCoef="0" cType="1" depth="5" nType="0" pos="l" purity="0.0e+00" res="0.0e+00" rms="0.0e+00"><Node Cut="0.0e+00" IVar="-1" NCoef="0" cType="1" depth="6" nType="-99" pos="l" purity="0.0e+00" res="-0.395632535" rms="0.0e+00" /><Node Cut="0.0e+00" IVar="-1" NCoef="0" cType="1" depth="6" nType="-99" pos="r" purity="0.0e+00" res="-0.453561634" rms="0.0e+00" /></Node><Node Cut="0.00659294333" IVar="10" NCoef="0" cType="1" depth="5" nType="0" pos="r" purity="0.0e+00" res="0.0e+00" rms="0.0e+00"><Node Cut="0.0e+00" IVar="-1" NCoef="0" cType="1" depth="6" nType="-99" pos="l" purity="0.0e+00" res="-0.447584122" rms="0.0e+00" /><Node Cut="0.0e+00" IVar="-1" NCoef="0" cType="1" depth="6" nType="-99" pos="r" purity="0.0e+00" res="-0.462517142" rms="0.0e+00" /></Node></Node></Node><Node Cut="5.41618538" IVar="6" NCoef="0" cType="1" depth="3" nType="0" pos="r" purity="0.0e+00" res="0.0e+00" rms="0.0e+00"><Node Cut="8" IVar="1" NCoef="0" cType="1" depth="4" nType="0" pos="l" purity="0.0e+00" res="0.0e+00" rms="0.0e+00"><Node Cut="3.12754369" IVar="5" NCoef="0" cType="1" depth="5" nType="0" pos="l" purity="0.0e+00" res="0.0e+00" rms="0.0e+00"><Node Cut="0.0e+00" IVar="-1" NCoef="0" cType="1" depth="6" nType="-99" pos="l" purity="0.0e+00" res="-0.445301205" rms="0.0e+00" /><Node Cut="0.0e+00" IVar="-1" NCoef="0" cType="1" depth="6" nType="-99" pos="r" purity="0.0e+00" res="-0.463573664" rms="0.0e+00" /></Node><Node Cut="1.34134698" IVar="4" NCoef="0" cType="1" depth="5" nType="0" pos="r" purity="0.0e+00" res="0.0e+00" rms="0.0e+00"><Node Cut="0.0e+00" IVar="-1" NCoef="0" cType="1" depth="6" nType="-99" pos="l" purity="0.0e+00" res="0.208046868" rms="0.0e+00" /><Node Cut="0.0e+00" IVar="-1" NCoef="0" cType="1" depth="6" nType="-99" pos="r" purity="0.0e+00" res="-0.435833901" rms="0.0e+00" /></Node></Node><Node Cut="0.0e+00" IVar="-1" NCoef="0" cType="1" depth="4" nType="-99" pos="r" purity="0.0e+00" res="-0.464205861" rms="0.0e+00" /></Node></Node><Node Cut="3.02832794" IVar="4" NCoef="0" cType="1" depth="2" nType="0" pos="r" purity="0.0e+00" res="0.0e+00" rms="0.0e+00"><Node Cut="2.69150877" IVar="6" NCoef="0" cType="1" depth="3" nType="0" pos="l" purity="0.0e+00" res="0.0e+00" rms="0.0e+00"><Node Cut="4.64482355" IVar="9" NCoef="0" cType="1" depth="4" nType="0" pos="l" purity="0.0e+00" res="0.0e+00" rms="0.0e+00"><Node Cut="4.44513798" IVar="5" NCoef="0" cType="1" depth="5" nType="0" pos="l" purity="0.0e+00" res="0.0e+00" rms="0.0e+00"><Node Cut="0.0e+00" IVar="-1" NCoef="0" cType="1" depth="6" nType="-99" pos="l" purity="0.0e+00" res="0.437150091" rms="0.0e+00" /><Node Cut="0.0e+00" IVar="-1" NCoef="0" cType="1" depth="6" nType="-99" pos="r" purity="0.0e+00" res="0.0802893639" rms="0.0e+00" /></Node><Node Cut="0.0112695191" IVar="10" NCoef="0" cType="1" depth="5" nType="0" pos="r" purity="0.0e+00" res="0.0e+00" rms="0.0e+00"><Node Cut="0.0e+00" IVar="-1" NCoef="0" cType="1" depth="6" nType="-99" pos="l" purity="0.0e+00" res="0.111787871" rms="0.0e+00" /><Node Cut="0.0e+00" IVar="-1" NCoef="0" cType="1" depth="6" nType="-99" pos="r" purity="0.0e+00" res="-0.414767891" rms="0.0e+00" /></Node></Node><Node Cut="5.10480595" IVar="6" NCoef="0" cType="1" depth="4" nType="0" pos="r" purity="0.0e+00" res="0.0e+00" rms="0.0e+00"><Node Cut="0.00250326865" IVar="10" NCoef="0" cType="1" depth="5" nType="0" pos="l" purity="0.0e+00" res="0.0e+00" rms="0.0e+00"><Node Cut="0.0e+00" IVar="-1" NCoef="0" cType="1" depth="6" nType="-99" pos="l" purity="0.0e+00" res="0.135116354" rms="0.0e+00" /><Node Cut="0.0e+00" IVar="-1" NCoef="0" cType="1" depth="6" nType="-99" pos="r" purity="0.0e+00" res="-0.376653343" rms="0.0e+00" /></Node><Node Cut="8.35237122" IVar="6" NCoef="0" cType="1" depth="5" nType="0" pos="r" purity="0.0e+00" res="0.0e+00" rms="0.0e+00"><Node Cut="0.0e+00" IVar="-1" NCoef="0" cType="1" depth="6" nType="-99" pos="l" purity="0.0e+00" res="-0.288200289" rms="0.0e+00" /><Node Cut="0.0e+00" IVar="-1" NCoef="0" cType="1" depth="6" nType="-99" pos="r" purity="0.0e+00" res="-0.43775785" rms="0.0e+00" /></Node></Node></Node><Node Cut="0.538676798" IVar="5" NCoef="0" cType="1" depth="3" nType="0" pos="r" purity="0.0e+00" res="0.0e+00" rms="0.0e+00"><Node Cut="20.5250111" IVar="4" NCoef="0" cType="1" depth="4" nType="0" pos="l" purity="0.0e+00" res="0.0e+00" rms="0.0e+00"><Node Cut="1.68538439" IVar="6" NCoef="0" cType="1" depth="5" nType="0" pos="l" purity="0.0e+00" res="0.0e+00" rms="0.0e+00"><Node Cut="0.0e+00" IVar="-1" NCoef="0" cType="1" depth="6" nType="-99" pos="l" purity="0.0e+00" res="0.176440269" rms="0.0e+00" /><Node Cut="0.0e+00" IVar="-1" NCoef="0" cType="1" depth="6" nType="-99" pos="r" purity="0.0e+00" res="-0.441469818" rms="0.0e+00" /></Node><Node Cut="78.0311279" IVar="4" NCoef="0" cType="1" depth="5" nType="0" pos="r" purity="0.0e+00" res="0.0e+00" rms="0.0e+00"><Node Cut="0.0e+00" IVar="-1" NCoef="0" cType="1" depth="6" nType="-99" pos="l" purity="0.0e+00" res="-0.300929517" rms="0.0e+00" /><Node Cut="0.0e+00" IVar="-1" NCoef="0" cType="1" depth="6" nType="-99" pos="r" purity="0.0e+00" res="-0.444007128" rms="0.0e+00" /></Node></Node><Node Cut="2.99960518" IVar="5" NCoef="0" cType="1" depth="4" nType="0" pos="r" purity="0.0e+00" res="0.0e+00" rms="0.0e+00"><Node Cut="17.1442604" IVar="4" NCoef="0" cType="1" depth="5" nType="0" pos="l" purity="0.0e+00" res="0.0e+00" rms="0.0e+00"><Node Cut="0.0e+00" IVar="-1" NCoef="0" cType="1" depth="6" nType="-99" pos="l" purity="0.0e+00" res="-0.287422031" rms="0.0e+00" /><Node Cut="0.0e+00" IVar="-1" NCoef="0" cType="1" depth="6" nType="-99" pos="r" purity="0.0e+00" res="-0.440869302" rms="0.0e+00" /></Node><Node Cut="1.94599521" IVar="8" NCoef="0" cType="1" depth="5" nType="0" pos="r" purity="0.0e+00" res="0.0e+00" rms="0.0e+00"><Node Cut="0.0e+00" IVar="-1" NCoef="0" cType="1" depth="6" nType="-99" pos="l" purity="0.0e+00" res="-0.108428992" rms="0.0e+00" /><Node Cut="0.0e+00" IVar="-1" NCoef="0" cType="1" depth="6" nType="-99" pos="r" purity="0.0e+00" res="-0.462275803" rms="0.0e+00" /></Node></Node></Node></Node></Node><Node Cut="2.85254145" IVar="6" NCoef="0" cType="1" depth="1" nType="0" pos="r" purity="0.0e+00" res="0.0e+00" rms="0.0e+00"><Node Cut="3.56782722" IVar="4" NCoef="0" cType="1" depth="2" nType="0" pos="l" purity="0.0e+00" res="0.0e+00" rms="0.0e+00"><Node Cut="0.00723444484" IVar="10" NCoef="0" cType="1" depth="3" nType="0" pos="l" purity="0.0e+00" res="0.0e+00" rms="0.0e+00"><Node Cut="3.23116565" IVar="5" NCoef="0" cType="1" depth="4" nType="0" pos="l" purity="0.0e+00" res="0.0e+00" rms="0.0e+00"><Node Cut="13.2977552" IVar="9" NCoef="0" cType="1" depth="5" nType="0" pos="l" purity="0.0e+00" res="0.0e+00" rms="0.0e+00"><Node Cut="0.0e+00" IVar="-1" NCoef="0" cType="1" depth="6" nType="-99" pos="l" purity="0.0e+00" res="0.443979949" rms="0.0e+00" /><Node Cut="0.0e+00" IVar="-1" NCoef="0" cType="1" depth="6" nType="-99" pos="r" purity="0.0e+00" res="0.0586550012" rms="0.0e+00" /></Node><Node Cut="0.00170644303" IVar="10" NCoef="0" cType="1" depth="5" nType="0" pos="r" purity="0.0e+00" res="0.0e+00" rms="0.0e+00"><Node Cut="0.0e+00" IVar="-1" NCoef="0" cType="1" depth="6" nType="-99" pos="l" purity="0.0e+00" res="0.307241231" rms="0.0e+00" /><Node Cut="0.0e+00" IVar="-1" NCoef="0" cType="1" depth="6" nType="-99" pos="r" purity="0.0e+00" res="-0.0735938847" rms="0.0e+00" /></Node></Node><Node Cut="6.10897923" IVar="9" NCoef="0" cType="1" depth="4" nType="0" pos="r" purity="0.0e+00" res="0.0e+00" rms="0.0e+00"><Node Cut="1.44024765" IVar="5" NCoef="0" cType="1" depth="5" nType="0" pos="l" purity="0.0e+00" res="0.0e+00" rms="0.0e+00"><Node Cut="0.0e+00" IVar="-1" NCoef="0" cType="1" depth="6" nType="-99" pos="l" purity="0.0e+00" res="0.20884943" rms="0.0e+00" /><Node Cut="0.0e+00" IVar="-1" NCoef="0" cType="1" depth="6" nType="-99" pos="r" purity="0.0e+00" res="-0.271129042" rms="0.0e+00" /></Node><Node Cut="0.0138766803" IVar="10" NCoef="0" cType="1" depth="5" nType="0" pos="r" purity="0.0e+00" res="0.0e+00" rms="0.0e+00"><Node Cut="0.0e+00" IVar="-1" NCoef="0" cType="1" depth="6" nType="-99" pos="l" purity="0.0e+00" res="-0.156150788" rms="0.0e+00" /><Node Cut="0.0e+00" IVar="-1" NCoef="0" cType="1" depth="6" nType="-99" pos="r" purity="0.0e+00" res="-0.431746632" rms="0.0e+00" /></Node></Node></Node><Node Cut="13.8140898" IVar="4" NCoef="0" cType="1" depth="3" nType="0" pos="r" purity="0.0e+00" res="0.0e+00" rms="0.0e+00"><Node Cut="1.9406004" IVar="5" NCoef="0" cType="1" depth="4" nType="0" pos="l" purity="0.0e+00" res="0.0e+00" rms="0.0e+00"><Node Cut="9" IVar="3" NCoef="0" cType="1" depth="5" nType="0" pos="l" purity="0.0e+00" res="0.0e+00" rms="0.0e+00"><Node Cut="0.0e+00" IVar="-1" NCoef="0" cType="1" depth="6" nType="-99" pos="l" purity="0.0e+00" res="-0.447766453" rms="0.0e+00" /><Node Cut="0.0e+00" IVar="-1" NCoef="0" cType="1" depth="6" nType="-99" pos="r" purity="0.0e+00" res="0.145143121" rms="0.0e+00" /></Node><Node Cut="2.9637146" IVar="5" NCoef="0" cType="1" depth="5" nType="0" pos="r" purity="0.0e+00" res="0.0e+00" rms="0.0e+00"><Node Cut="0.0e+00" IVar="-1" NCoef="0" cType="1" depth="6" nType="-99" pos="l" purity="0.0e+00" res="-0.265511185" rms="0.0e+00" /><Node Cut="0.0e+00" IVar="-1" NCoef="0" cType="1" depth="6" nType="-99" pos="r" purity="0.0e+00" res="-0.441761762" rms="0.0e+00" /></Node></Node><Node Cut="28.7235031" IVar="4" NCoef="0" cType="1" depth="4" nType="0" pos="r" purity="0.0e+00" res="0.0e+00" rms="0.0e+00"><Node Cut="1.53319645" IVar="5" NCoef="0" cType="1" depth="5" nType="0" pos="l" purity="0.0e+00" res="0.0e+00" rms="0.0e+00"><Node Cut="0.0e+00" IVar="-1" NCoef="0" cType="1" depth="6" nType="-99" pos="l" purity="0.0e+00" res="-0.211652189" rms="0.0e+00" /><Node Cut="0.0e+00" IVar="-1" NCoef="0" cType="1" depth="6" nType="-99" pos="r" purity="0.0e+00" res="-0.441520482" rms="0.0e+00" /></Node><Node Cut="0.521444976" IVar="5" NCoef="0" cType="1" depth="5" nType="0" pos="r" purity="0.0e+00" res="0.0e+00" rms="0.0e+00"><Node Cut="0.0e+00" IVar="-1" NCoef="0" cType="1" depth="6" nType="-99" pos="l" purity="0.0e+00" res="-0.408607453" rms="0.0e+00" /><Node Cut="0.0e+00" IVar="-1" NCoef="0" cType="1" depth="6" nType="-99" pos="r" purity="0.0e+00" res="-0.457622498" rms="0.0e+00" /></Node></Node></Node></Node><Node Cut="5.1397047" IVar="6" NCoef="0" cType="1" depth="2" nType="0" pos="r" purity="0.0e+00" res="0.0e+00" rms="0.0e+00"><Node Cut="0.00154148217" IVar="10" NCoef="0" cType="1" depth="3" nType="0" pos="l" purity="0.0e+00" res="0.0e+00" rms="0.0e+00"><Node Cut="2.49560547" IVar="4" NCoef="0" cType="1" depth="4" nType="0" pos="l" purity="0.0e+00" res="0.0e+00" rms="0.0e+00"><Node Cut="2.30842233" IVar="5" NCoef="0" cType="1" depth="5" nType="0" pos="l" purity="0.0e+00" res="0.0e+00" rms="0.0e+00"><Node Cut="0.0e+00" IVar="-1" NCoef="0" cType="1" depth="6" nType="-99" pos="l" purity="0.0e+00" res="0.280335963" rms="0.0e+00" /><Node Cut="0.0e+00" IVar="-1" NCoef="0" cType="1" depth="6" nType="-99" pos="r" purity="0.0e+00" res="-0.0803503096" rms="0.0e+00" /></Node><Node Cut="3.44093227" IVar="4" NCoef="0" cType="1" depth="5" nType="0" pos="r" purity="0.0e+00" res="0.0e+00" rms="0.0e+00"><Node Cut="0.0e+00" IVar="-1" NCoef="0" cType="1" depth="6" nType="-99" pos="l" purity="0.0e+00" res="-0.178233996" rms="0.0e+00" /><Node Cut="0.0e+00" IVar="-1" NCoef="0" cType="1" depth="6" nType="-99" pos="r" purity="0.0e+00" res="-0.44464618" rms="0.0e+00" /></Node></Node><Node Cut="0.00521810912" IVar="10" NCoef="0" cType="1" depth="4" nType="0" pos="r" purity="0.0e+00" res="0.0e+00" rms="0.0e+00"><Node Cut="1.21285677" IVar="5" NCoef="0" cType="1" depth="5" nType="0" pos="l" purity="0.0e+00" res="0.0e+00" rms="0.0e+00"><Node Cut="0.0e+00" IVar="-1" NCoef="0" cType="1" depth="6" nType="-99" pos="l" purity="0.0e+00" res="-0.0690963864" rms="0.0e+00" /><Node Cut="0.0e+00" IVar="-1" NCoef="0" cType="1" depth="6" nType="-99" pos="r" purity="0.0e+00" res="-0.3487719" rms="0.0e+00" /></Node><Node Cut="0.553600311" IVar="5" NCoef="0" cType="1" depth="5" nType="0" pos="r" purity="0.0e+00" res="0.0e+00" rms="0.0e+00"><Node Cut="0.0e+00" IVar="-1" NCoef="0" cType="1" depth="6" nType="-99" pos="l" purity="0.0e+00" res="-0.380732298" rms="0.0e+00" /><Node Cut="0.0e+00" IVar="-1" NCoef="0" cType="1" depth="6" nType="-99" pos="r" purity="0.0e+00" res="-0.459008515" rms="0.0e+00" /></Node></Node></Node><Node Cut="7.78555012" IVar="6" NCoef="0" cType="1" depth="3" nType="0" pos="r" purity="0.0e+00" res="0.0e+00" rms="0.0e+00"><Node Cut="0.00137905311" IVar="10" NCoef="0" cType="1" depth="4" nType="0" pos="l" purity="0.0e+00" res="0.0e+00" rms="0.0e+00"><Node Cut="2.18762517" IVar="4" NCoef="0" cType="1" depth="5" nType="0" pos="l" purity="0.0e+00" res="0.0e+00" rms="0.0e+00"><Node Cut="0.0e+00" IVar="-1" NCoef="0" cType="1" depth="6" nType="-99" pos="l" purity="0.0e+00" res="-0.0647480935" rms="0.0e+00" /><Node Cut="0.0e+00" IVar="-1" NCoef="0" cType="1" depth="6" nType="-99" pos="r" purity="0.0e+00" res="-0.431641877" rms="0.0e+00" /></Node><Node Cut="0.00568453176" IVar="10" NCoef="0" cType="1" depth="5" nType="0" pos="r" purity="0.0e+00" res="0.0e+00" rms="0.0e+00"><Node Cut="0.0e+00" IVar="-1" NCoef="0" cType="1" depth="6" nType="-99" pos="l" purity="0.0e+00" res="-0.354453087" rms="0.0e+00" /><Node Cut="0.0e+00" IVar="-1" NCoef="0" cType="1" depth="6" nType="-99" pos="r" purity="0.0e+00" res="-0.455634505" rms="0.0e+00" /></Node></Node><Node Cut="1.35857058" IVar="9" NCoef="0" cType="1" depth="4" nType="0" pos="r" purity="0.0e+00" res="0.0e+00" rms="0.0e+00"><Node Cut="1.82678473" IVar="4" NCoef="0" cType="1" depth="5" nType="0" pos="l" purity="0.0e+00" res="0.0e+00" rms="0.0e+00"><Node Cut="0.0e+00" IVar="-1" NCoef="0" cType="1" depth="6" nType="-99" pos="l" purity="0.0e+00" res="-0.339959234" rms="0.0e+00" /><Node Cut="0.0e+00" IVar="-1" NCoef="0" cType="1" depth="6" nType="-99" pos="r" purity="0.0e+00" res="-0.45912841" rms="0.0e+00" /></Node><Node Cut="0.00352813979" IVar="10" NCoef="0" cType="1" depth="5" nType="0" pos="r" purity="0.0e+00" res="0.0e+00" rms="0.0e+00"><Node Cut="0.0e+00" IVar="-1" NCoef="0" cType="1" depth="6" nType="-99" pos="l" purity="0.0e+00" res="-0.440027416" rms="0.0e+00" /><Node Cut="0.0e+00" IVar="-1" NCoef="0" cType="1" depth="6" nType="-99" pos="r" purity="0.0e+00" res="-0.461375505" rms="0.0e+00" /></Node></Node></Node></Node></Node></Node></BinaryTree><BinaryTree boostWeight="1.0e+00" itree="2" type="DecisionTree"><Node Cut="11" IVar="1" NCoef="0" cType="1" depth="0" nType="0" pos="s" purity="0.0e+00" res="0.0e+00" rms="0.0e+00"><Node Cut="8" IVar="1" NCoef="0" cType="1" depth="1" nType="0" pos="l" purity="0.0e+00" res="0.0e+00" rms="0.0e+00"><Node Cut="2.41435289" IVar="6" NCoef="0" cType="1" depth="2" nType="0" pos="l" purity="0.0e+00" res="0.0e+00" rms="0.0e+00"><Node Cut="0.00169868511" IVar="10" NCoef="0" cType="1" depth="3" nType="0" pos="l" purity="0.0e+00" res="0.0e+00" rms="0.0e+00"><Node Cut="2.25221014" IVar="5" NCoef="0" cType="1" depth="4" nType="0" pos="l" purity="0.0e+00" res="0.0e+00" rms="0.0e+00"><Node Cut="1.21355605" IVar="0" NCoef="0" cType="1" depth="5" nType="0" pos="l" purity="0.0e+00" res="0.0e+00" rms="0.0e+00"><Node Cut="0.0e+00" IVar="-1" NCoef="0" cType="1" depth="6" nType="-99" pos="l" purity="0.0e+00" res="-0.23348029" rms="0.0e+00" /><Node Cut="0.0e+00" IVar="-1" NCoef="0" cType="1" depth="6" nType="-99" pos="r" purity="0.0e+00" res="-0.370535076" rms="0.0e+00" /></Node><Node Cut="3.49387646" IVar="5" NCoef="0" cType="1" depth="5" nType="0" pos="r" purity="0.0e+00" res="0.0e+00" rms="0.0e+00"><Node Cut="0.0e+00" IVar="-1" NCoef="0" cType="1" depth="6" nType="-99" pos="l" purity="0.0e+00" res="-0.345270753" rms="0.0e+00" /><Node Cut="0.0e+00" IVar="-1" NCoef="0" cType="1" depth="6" nType="-99" pos="r" purity="0.0e+00" res="-0.40057227" rms="0.0e+00" /></Node></Node><Node Cut="0.00513580674" IVar="10" NCoef="0" cType="1" depth="4" nType="0" pos="r" purity="0.0e+00" res="0.0e+00" rms="0.0e+00"><Node Cut="2.95022178" IVar="5" NCoef="0" cType="1" depth="5" nType="0" pos="l" purity="0.0e+00" res="0.0e+00" rms="0.0e+00"><Node Cut="0.0e+00" IVar="-1" NCoef="0" cType="1" depth="6" nType="-99" pos="l" purity="0.0e+00" res="-0.369483411" rms="0.0e+00" /><Node Cut="0.0e+00" IVar="-1" NCoef="0" cType="1" depth="6" nType="-99" pos="r" purity="0.0e+00" res="-0.403520316" rms="0.0e+00" /></Node><Node Cut="2.39931488" IVar="0" NCoef="0" cType="1" depth="5" nType="0" pos="r" purity="0.0e+00" res="0.0e+00" rms="0.0e+00"><Node Cut="0.0e+00" IVar="-1" NCoef="0" cType="1" depth="6" nType="-99" pos="l" purity="0.0e+00" res="-0.400335938" rms="0.0e+00" /><Node Cut="0.0e+00" IVar="-1" NCoef="0" cType="1" depth="6" nType="-99" pos="r" purity="0.0e+00" res="-0.221252009" rms="0.0e+00" /></Node></Node></Node><Node Cut="5.50111341" IVar="6" NCoef="0" cType="1" depth="3" nType="0" pos="r" purity="0.0e+00" res="0.0e+00" rms="0.0e+00"><Node Cut="0.00404037721" IVar="11" NCoef="0" cType="1" depth="4" nType="0" pos="l" purity="0.0e+00" res="0.0e+00" rms="0.0e+00"><Node Cut="3.06087399" IVar="5" NCoef="0" cType="1" depth="5" nType="0" pos="l" purity="0.0e+00" res="0.0e+00" rms="0.0e+00"><Node Cut="0.0e+00" IVar="-1" NCoef="0" cType="1" depth="6" nType="-99" pos="l" purity="0.0e+00" res="-0.371572912" rms="0.0e+00" /><Node Cut="0.0e+00" IVar="-1" NCoef="0" cType="1" depth="6" nType="-99" pos="r" purity="0.0e+00" res="-0.39979893" rms="0.0e+00" /></Node><Node Cut="0.0e+00" IVar="-1" NCoef="0" cType="1" depth="5" nType="-99" pos="r" purity="0.0e+00" res="-0.400777131" rms="0.0e+00" /></Node><Node Cut="0.0e+00" IVar="-1" NCoef="0" cType="1" depth="4" nType="-99" pos="r" purity="0.0e+00" res="-0.402939111" rms="0.0e+00" /></Node></Node><Node Cut="2.49609518" IVar="4" NCoef="0" cType="1" depth="2" nType="0" pos="r" purity="0.0e+00" res="0.0e+00" rms="0.0e+00"><Node Cut="2.55529332" IVar="6" NCoef="0" cType="1" depth="3" nType="0" pos="l" purity="0.0e+00" res="0.0e+00" rms="0.0e+00"><Node Cut="5.39834499" IVar="9" NCoef="0" cType="1" depth="4" nType="0" pos="l" purity="0.0e+00" res="0.0e+00" rms="0.0e+00"><Node Cut="3.89521694" IVar="5" NCoef="0" cType="1" depth="5" nType="0" pos="l" purity="0.0e+00" res="0.0e+00" rms="0.0e+00"><Node Cut="0.0e+00" IVar="-1" NCoef="0" cType="1" depth="6" nType="-99" pos="l" purity="0.0e+00" res="0.416349679" rms="0.0e+00" /><Node Cut="0.0e+00" IVar="-1" NCoef="0" cType="1" depth="6" nType="-99" pos="r" purity="0.0e+00" res="0.0120373666" rms="0.0e+00" /></Node><Node Cut="0.787622809" IVar="5" NCoef="0" cType="1" depth="5" nType="0" pos="r" purity="0.0e+00" res="0.0e+00" rms="0.0e+00"><Node Cut="0.0e+00" IVar="-1" NCoef="0" cType="1" depth="6" nType="-99" pos="l" purity="0.0e+00" res="0.0465255417" rms="0.0e+00" /><Node Cut="0.0e+00" IVar="-1" NCoef="0" cType="1" depth="6" nType="-99" pos="r" purity="0.0e+00" res="-0.386656791" rms="0.0e+00" /></Node></Node><Node Cut="5.80864" IVar="6" NCoef="0" cType="1" depth="4" nType="0" pos="r" purity="0.0e+00" res="0.0e+00" rms="0.0e+00"><Node Cut="0.000885591609" IVar="10" NCoef="0" cType="1" depth="5" nType="0" pos="l" purity="0.0e+00" res="0.0e+00" rms="0.0e+00"><Node Cut="0.0e+00" IVar="-1" NCoef="0" cType="1" depth="6" nType="-99" pos="l" purity="0.0e+00" res="0.245591491" rms="0.0e+00" /><Node Cut="0.0e+00" IVar="-1" NCoef="0" cType="1" depth="6" nType="-99" pos="r" purity="0.0e+00" res="-0.24496685" rms="0.0e+00" /></Node><Node Cut="0.00105112605" IVar="10" NCoef="0" cType="1" depth="5" nType="0" pos="r" purity="0.0e+00" res="0.0e+00" rms="0.0e+00"><Node Cut="0.0e+00" IVar="-1" NCoef="0" cType="1" depth="6" nType="-99" pos="l" purity="0.0e+00" res="-0.291684806" rms="0.0e+00" /><Node Cut="0.0e+00" IVar="-1" NCoef="0" cType="1" depth="6" nType="-99" pos="r" purity="0.0e+00" res="-0.401951611" rms="0.0e+00" /></Node></Node></Node><Node Cut="-1.77054536" IVar="0" NCoef="0" cType="1" depth="3" nType="0" pos="r" purity="0.0e+00" res="0.0e+00" rms="0.0e+00"><Node Cut="1.35905814" IVar="5" NCoef="0" cType="1" depth="4" nType="0" pos="l" purity="0.0e+00" res="0.0e+00" rms="0.0e+00"><Node Cut="83.5721741" IVar="4" NCoef="0" cType="1" depth="5" nType="0" pos="l" purity="0.0e+00" res="0.0e+00" rms="0.0e+00"><Node Cut="0.0e+00" IVar="-1" NCoef="0" cType="1" depth="6" nType="-99" pos="l" purity="0.0e+00" res="0.269760638" rms="0.0e+00" /><Node Cut="0.0e+00" IVar="-1" NCoef="0" cType="1" depth="6" nType="-99" pos="r" purity="0.0e+00" res="-0.337658733" rms="0.0e+00" /></Node><Node Cut="3.14577389" IVar="5" NCoef="0" cType="1" depth="5" nType="0" pos="r" purity="0.0e+00" res="0.0e+00" rms="0.0e+00"><Node Cut="0.0e+00" IVar="-1" NCoef="0" cType="1" depth="6" nType="-99" pos="l" purity="0.0e+00" res="-0.249347389" rms="0.0e+00" /><Node Cut="0.0e+00" IVar="-1" NCoef="0" cType="1" depth="6" nType="-99" pos="r" purity="0.0e+00" res="-0.389549673" rms="0.0e+00" /></Node></Node><Node Cut="1.78707731" IVar="0" NCoef="0" cType="1" depth="4" nType="0" pos="r" purity="0.0e+00" res="0.0e+00" rms="0.0e+00"><Node Cut="4.78886318" IVar="4" NCoef="0" cType="1" depth="5" nType="0" pos="l" purity="0.0e+00" res="0.0e+00" rms="0.0e+00"><Node Cut="0.0e+00" IVar="-1" NCoef="0" cType="1" depth="6" nType="-99" pos="l" purity="0.0e+00" res="-0.280409098" rms="0.0e+00" /><Node Cut="0.0e+00" IVar="-1" NCoef="0" cType="1" depth="6" nType="-99" pos="r" purity="0.0e+00" res="-0.404176682" rms="0.0e+00" /></Node><Node Cut="26.4698601" IVar="4" NCoef="0" cType="1" depth="5" nType="0" pos="r" purity="0.0e+00" res="0.0e+00" rms="0.0e+00"><Node Cut="0.0e+00" IVar="-1" NCoef="0" cType="1" depth="6" nType="-99" pos="l" purity="0.0e+00" res="0.112586357" rms="0.0e+00" /><Node Cut="0.0e+00" IVar="-1" NCoef="0" cType="1" depth="6" nType="-99" pos="r" purity="0.0e+00" res="-0.327751458" rms="0.0e+00" /></Node></Node></Node></Node></Node><Node Cut="2.45074463" IVar="6" NCoef="0" cType="1" depth="1" nType="0" pos="r" purity="0.0e+00" res="0.0e+00" rms="0.0e+00"><Node Cut="3.40988922" IVar="4" NCoef="0" cType="1" depth="2" nType="0" pos="l" purity="0.0e+00" res="0.0e+00" rms="0.0e+00"><Node Cut="0.00624509156" IVar="10" NCoef="0" cType="1" depth="3" nType="0" pos="l" purity="0.0e+00" res="0.0e+00" rms="0.0e+00"><Node Cut="4.91819286" IVar="5" NCoef="0" cType="1" depth="4" nType="0" pos="l" purity="0.0e+00" res="0.0e+00" rms="0.0e+00"><Node Cut="0.00206360873" IVar="10" NCoef="0" cType="1" depth="5" nType="0" pos="l" purity="0.0e+00" res="0.0e+00" rms="0.0e+00"><Node Cut="0.0e+00" IVar="-1" NCoef="0" cType="1" depth="6" nType="-99" pos="l" purity="0.0e+00" res="0.386774778" rms="0.0e+00" /><Node Cut="0.0e+00" IVar="-1" NCoef="0" cType="1" depth="6" nType="-99" pos="r" purity="0.0e+00" res="0.287652314" rms="0.0e+00" /></Node><Node Cut="0.916565418" IVar="6" NCoef="0" cType="1" depth="5" nType="0" pos="r" purity="0.0e+00" res="0.0e+00" rms="0.0e+00"><Node Cut="0.0e+00" IVar="-1" NCoef="0" cType="1" depth="6" nType="-99" pos="l" purity="0.0e+00" res="0.204667851" rms="0.0e+00" /><Node Cut="0.0e+00" IVar="-1" NCoef="0" cType="1" depth="6" nType="-99" pos="r" purity="0.0e+00" res="-0.131279111" rms="0.0e+00" /></Node></Node><Node Cut="1.15974391" IVar="5" NCoef="0" cType="1" depth="4" nType="0" pos="r" purity="0.0e+00" res="0.0e+00" rms="0.0e+00"><Node Cut="0.0151664009" IVar="10" NCoef="0" cType="1" depth="5" nType="0" pos="l" purity="0.0e+00" res="0.0e+00" rms="0.0e+00"><Node Cut="0.0e+00" IVar="-1" NCoef="0" cType="1" depth="6" nType="-99" pos="l" purity="0.0e+00" res="0.178923339" rms="0.0e+00" /><Node Cut="0.0e+00" IVar="-1" NCoef="0" cType="1" depth="6" nType="-99" pos="r" purity="0.0e+00" res="-0.20238705" rms="0.0e+00" /></Node><Node Cut="3.37918758" IVar="9" NCoef="0" cType="1" depth="5" nType="0" pos="r" purity="0.0e+00" res="0.0e+00" rms="0.0e+00"><Node Cut="0.0e+00" IVar="-1" NCoef="0" cType="1" depth="6" nType="-99" pos="l" purity="0.0e+00" res="0.0397010073" rms="0.0e+00" /><Node Cut="0.0e+00" IVar="-1" NCoef="0" cType="1" depth="6" nType="-99" pos="r" purity="0.0e+00" res="-0.337582171" rms="0.0e+00" /></Node></Node></Node><Node Cut="16.0607586" IVar="4" NCoef="0" cType="1" depth="3" nType="0" pos="r" purity="0.0e+00" res="0.0e+00" rms="0.0e+00"><Node Cut="0.00170461531" IVar="10" NCoef="0" cType="1" depth="4" nType="0" pos="l" purity="0.0e+00" res="0.0e+00" rms="0.0e+00"><Node Cut="2.58148503" IVar="5" NCoef="0" cType="1" depth="5" nType="0" pos="l" purity="0.0e+00" res="0.0e+00" rms="0.0e+00"><Node Cut="0.0e+00" IVar="-1" NCoef="0" cType="1" depth="6" nType="-99" pos="l" purity="0.0e+00" res="0.169232532" rms="0.0e+00" /><Node Cut="0.0e+00" IVar="-1" NCoef="0" cType="1" depth="6" nType="-99" pos="r" purity="0.0e+00" res="-0.305003643" rms="0.0e+00" /></Node><Node Cut="0.501662493" IVar="5" NCoef="0" cType="1" depth="5" nType="0" pos="r" purity="0.0e+00" res="0.0e+00" rms="0.0e+00"><Node Cut="0.0e+00" IVar="-1" NCoef="0" cType="1" depth="6" nType="-99" pos="l" purity="0.0e+00" res="-0.153422147" rms="0.0e+00" /><Node Cut="0.0e+00" IVar="-1" NCoef="0" cType="1" depth="6" nType="-99" pos="r" purity="0.0e+00" res="-0.364409864" rms="0.0e+00" /></Node></Node><Node Cut="0.982033253" IVar="5" NCoef="0" cType="1" depth="4" nType="0" pos="r" purity="0.0e+00" res="0.0e+00" rms="0.0e+00"><Node Cut="54.042099" IVar="4" NCoef="0" cType="1" depth="5" nType="0" pos="l" purity="0.0e+00" res="0.0e+00" rms="0.0e+00"><Node Cut="0.0e+00" IVar="-1" NCoef="0" cType="1" depth="6" nType="-99" pos="l" purity="0.0e+00" res="-0.211775035" rms="0.0e+00" /><Node Cut="0.0e+00" IVar="-1" NCoef="0" cType="1" depth="6" nType="-99" pos="r" purity="0.0e+00" res="-0.367483318" rms="0.0e+00" /></Node><Node Cut="5.60875034" IVar="5" NCoef="0" cType="1" depth="5" nType="0" pos="r" purity="0.0e+00" res="0.0e+00" rms="0.0e+00"><Node Cut="0.0e+00" IVar="-1" NCoef="0" cType="1" depth="6" nType="-99" pos="l" purity="0.0e+00" res="-0.373817116" rms="0.0e+00" /><Node Cut="0.0e+00" IVar="-1" NCoef="0" cType="1" depth="6" nType="-99" pos="r" purity="0.0e+00" res="-0.403368384" rms="0.0e+00" /></Node></Node></Node></Node><Node Cut="6.20994473" IVar="6" NCoef="0" cType="1" depth="2" nType="0" pos="r" purity="0.0e+00" res="0.0e+00" rms="0.0e+00"><Node Cut="0.00230540289" IVar="10" NCoef="0" cType="1" depth="3" nType="0" pos="l" purity="0.0e+00" res="0.0e+00" rms="0.0e+00"><Node Cut="2.23015285" IVar="4" NCoef="0" cType="1" depth="4" nType="0" pos="l" purity="0.0e+00" res="0.0e+00" rms="0.0e+00"><Node Cut="4.07009602" IVar="5" NCoef="0" cType="1" depth="5" nType="0" pos="l" purity="0.0e+00" res="0.0e+00" rms="0.0e+00"><Node Cut="0.0e+00" IVar="-1" NCoef="0" cType="1" depth="6" nType="-99" pos="l" purity="0.0e+00" res="0.176218525" rms="0.0e+00" /><Node Cut="0.0e+00" IVar="-1" NCoef="0" cType="1" depth="6" nType="-99" pos="r" purity="0.0e+00" res="-0.204262882" rms="0.0e+00" /></Node><Node Cut="3.18515062" IVar="4" NCoef="0" cType="1" depth="5" nType="0" pos="r" purity="0.0e+00" res="0.0e+00" rms="0.0e+00"><Node Cut="0.0e+00" IVar="-1" NCoef="0" cType="1" depth="6" nType="-99" pos="l" purity="0.0e+00" res="-0.171390891" rms="0.0e+00" /><Node Cut="0.0e+00" IVar="-1" NCoef="0" cType="1" depth="6" nType="-99" pos="r" purity="0.0e+00" res="-0.38119331" rms="0.0e+00" /></Node></Node><Node Cut="0.0062732473" IVar="10" NCoef="0" cType="1" depth="4" nType="0" pos="r" purity="0.0e+00" res="0.0e+00" rms="0.0e+00"><Node Cut="0.715132356" IVar="5" NCoef="0" cType="1" depth="5" nType="0" pos="l" purity="0.0e+00" res="0.0e+00" rms="0.0e+00"><Node Cut="0.0e+00" IVar="-1" NCoef="0" cType="1" depth="6" nType="-99" pos="l" purity="0.0e+00" res="-0.121249937" rms="0.0e+00" /><Node Cut="0.0e+00" IVar="-1" NCoef="0" cType="1" depth="6" nType="-99" pos="r" purity="0.0e+00" res="-0.321712345" rms="0.0e+00" /></Node><Node Cut="2.37469006" IVar="9" NCoef="0" cType="1" depth="5" nType="0" pos="r" purity="0.0e+00" res="0.0e+00" rms="0.0e+00"><Node Cut="0.0e+00" IVar="-1" NCoef="0" cType="1" depth="6" nType="-99" pos="l" purity="0.0e+00" res="-0.255876929" rms="0.0e+00" /><Node Cut="0.0e+00" IVar="-1" NCoef="0" cType="1" depth="6" nType="-99" pos="r" purity="0.0e+00" res="-0.39606148" rms="0.0e+00" /></Node></Node></Node><Node Cut="0.00165249675" IVar="10" NCoef="0" cType="1" depth="3" nType="0" pos="r" purity="0.0e+00" res="0.0e+00" rms="0.0e+00"><Node Cut="2.00018001" IVar="4" NCoef="0" cType="1" depth="4" nType="0" pos="l" purity="0.0e+00" res="0.0e+00" rms="0.0e+00"><Node Cut="11.1995773" IVar="6" NCoef="0" cType="1" depth="5" nType="0" pos="l" purity="0.0e+00" res="0.0e+00" rms="0.0e+00"><Node Cut="0.0e+00" IVar="-1" NCoef="0" cType="1" depth="6" nType="-99" pos="l" purity="0.0e+00" res="-0.136629686" rms="0.0e+00" /><Node Cut="0.0e+00" IVar="-1" NCoef="0" cType="1" depth="6" nType="-99" pos="r" purity="0.0e+00" res="-0.308354616" rms="0.0e+00" /></Node><Node Cut="2.61052918" IVar="4" NCoef="0" cType="1" depth="5" nType="0" pos="r" purity="0.0e+00" res="0.0e+00" rms="0.0e+00"><Node Cut="0.0e+00" IVar="-1" NCoef="0" cType="1" depth="6" nType="-99" pos="l" purity="0.0e+00" res="-0.352891356" rms="0.0e+00" /><Node Cut="0.0e+00" IVar="-1" NCoef="0" cType="1" depth="6" nType="-99" pos="r" purity="0.0e+00" res="-0.401815712" rms="0.0e+00" /></Node></Node><Node Cut="0.00553889573" IVar="10" NCoef="0" cType="1" depth="4" nType="0" pos="r" purity="0.0e+00" res="0.0e+00" rms="0.0e+00"><Node Cut="12.5167522" IVar="6" NCoef="0" cType="1" depth="5" nType="0" pos="l" purity="0.0e+00" res="0.0e+00" rms="0.0e+00"><Node Cut="0.0e+00" IVar="-1" NCoef="0" cType="1" depth="6" nType="-99" pos="l" purity="0.0e+00" res="-0.338315189" rms="0.0e+00" /><Node Cut="0.0e+00" IVar="-1" NCoef="0" cType="1" depth="6" nType="-99" pos="r" purity="0.0e+00" res="-0.388698608" rms="0.0e+00" /></Node><Node Cut="0.00865696557" IVar="10" NCoef="0" cType="1" depth="5" nType="0" pos="r" purity="0.0e+00" res="0.0e+00" rms="0.0e+00"><Node Cut="0.0e+00" IVar="-1" NCoef="0" cType="1" depth="6" nType="-99" pos="l" purity="0.0e+00" res="-0.393640846" rms="0.0e+00" /><Node Cut="0.0e+00" IVar="-1" NCoef="0" cType="1" depth="6" nType="-99" pos="r" purity="0.0e+00" res="-0.402692705" rms="0.0e+00" /></Node></Node></Node></Node></Node></Node></BinaryTree><BinaryTree boostWeight="1.0e+00" itree="3" type="DecisionTree"><Node Cut="11" IVar="1" NCoef="0" cType="1" depth="0" nType="0" pos="s" purity="0.0e+00" res="0.0e+00" rms="0.0e+00"><Node Cut="8" IVar="1" NCoef="0" cType="1" depth="1" nType="0" pos="l" purity="0.0e+00" res="0.0e+00" rms="0.0e+00"><Node Cut="1.83231091" IVar="6" NCoef="0" cType="1" depth="2" nType="0" pos="l" purity="0.0e+00" res="0.0e+00" rms="0.0e+00"><Node Cut="0.00116068497" IVar="10" NCoef="0" cType="1" depth="3" nType="0" pos="l" purity="0.0e+00" res="0.0e+00" rms="0.0e+00"><Node Cut="3.19152665" IVar="5" NCoef="0" cType="1" depth="4" nType="0" pos="l" purity="0.0e+00" res="0.0e+00" rms="0.0e+00"><Node Cut="-1.20998597" IVar="0" NCoef="0" cType="1" depth="5" nType="0" pos="l" purity="0.0e+00" res="0.0e+00" rms="0.0e+00"><Node Cut="0.0e+00" IVar="-1" NCoef="0" cType="1" depth="6" nType="-99" pos="l" purity="0.0e+00" res="-0.326361775" rms="0.0e+00" /><Node Cut="0.0e+00" IVar="-1" NCoef="0" cType="1" depth="6" nType="-99" pos="r" purity="0.0e+00" res="-0.167721123" rms="0.0e+00" /></Node><Node Cut="7.10962152" IVar="5" NCoef="0" cType="1" depth="5" nType="0" pos="r" purity="0.0e+00" res="0.0e+00" rms="0.0e+00"><Node Cut="0.0e+00" IVar="-1" NCoef="0" cType="1" depth="6" nType="-99" pos="l" purity="0.0e+00" res="-0.33264327" rms="0.0e+00" /><Node Cut="0.0e+00" IVar="-1" NCoef="0" cType="1" depth="6" nType="-99" pos="r" purity="0.0e+00" res="-0.370942891" rms="0.0e+00" /></Node></Node><Node Cut="0.00254469691" IVar="10" NCoef="0" cType="1" depth="4" nType="0" pos="r" purity="0.0e+00" res="0.0e+00" rms="0.0e+00"><Node Cut="1.35243297" IVar="5" NCoef="0" cType="1" depth="5" nType="0" pos="l" purity="0.0e+00" res="0.0e+00" rms="0.0e+00"><Node Cut="0.0e+00" IVar="-1" NCoef="0" cType="1" depth="6" nType="-99" pos="l" purity="0.0e+00" res="-0.294470519" rms="0.0e+00" /><Node Cut="0.0e+00" IVar="-1" NCoef="0" cType="1" depth="6" nType="-99" pos="r" purity="0.0e+00" res="-0.351292014" rms="0.0e+00" /></Node><Node Cut="0.0060672611" IVar="10" NCoef="0" cType="1" depth="5" nType="0" pos="r" purity="0.0e+00" res="0.0e+00" rms="0.0e+00"><Node Cut="0.0e+00" IVar="-1" NCoef="0" cType="1" depth="6" nType="-99" pos="l" purity="0.0e+00" res="-0.346451223" rms="0.0e+00" /><Node Cut="0.0e+00" IVar="-1" NCoef="0" cType="1" depth="6" nType="-99" pos="r" purity="0.0e+00" res="-0.365737438" rms="0.0e+00" /></Node></Node></Node><Node Cut="3.32830024" IVar="6" NCoef="0" cType="1" depth="3" nType="0" pos="r" purity="0.0e+00" res="0.0e+00" rms="0.0e+00"><Node Cut="0.000875487574" IVar="10" NCoef="0" cType="1" depth="4" nType="0" pos="l" purity="0.0e+00" res="0.0e+00" rms="0.0e+00"><Node Cut="2.07336283" IVar="5" NCoef="0" cType="1" depth="5" nType="0" pos="l" purity="0.0e+00" res="0.0e+00" rms="0.0e+00"><Node Cut="0.0e+00" IVar="-1" NCoef="0" cType="1" depth="6" nType="-99" pos="l" purity="0.0e+00" res="-0.274695396" rms="0.0e+00" /><Node Cut="0.0e+00" IVar="-1" NCoef="0" cType="1" depth="6" nType="-99" pos="r" purity="0.0e+00" res="-0.356410772" rms="0.0e+00" /></Node><Node Cut="0.00213372358" IVar="10" NCoef="0" cType="1" depth="5" nType="0" pos="r" purity="0.0e+00" res="0.0e+00" rms="0.0e+00"><Node Cut="0.0e+00" IVar="-1" NCoef="0" cType="1" depth="6" nType="-99" pos="l" purity="0.0e+00" res="-0.34387663" rms="0.0e+00" /><Node Cut="0.0e+00" IVar="-1" NCoef="0" cType="1" depth="6" nType="-99" pos="r" purity="0.0e+00" res="-0.365292311" rms="0.0e+00" /></Node></Node><Node Cut="7.70853424" IVar="6" NCoef="0" cType="1" depth="4" nType="0" pos="r" purity="0.0e+00" res="0.0e+00" rms="0.0e+00"><Node Cut="2.1780684" IVar="5" NCoef="0" cType="1" depth="5" nType="0" pos="l" purity="0.0e+00" res="0.0e+00" rms="0.0e+00"><Node Cut="0.0e+00" IVar="-1" NCoef="0" cType="1" depth="6" nType="-99" pos="l" purity="0.0e+00" res="-0.356884629" rms="0.0e+00" /><Node Cut="0.0e+00" IVar="-1" NCoef="0" cType="1" depth="6" nType="-99" pos="r" purity="0.0e+00" res="-0.366666138" rms="0.0e+00" /></Node><Node Cut="0.0e+00" IVar="-1" NCoef="0" cType="1" depth="5" nType="-99" pos="r" purity="0.0e+00" res="-0.368670493" rms="0.0e+00" /></Node></Node></Node><Node Cut="2.13337946" IVar="4" NCoef="0" cType="1" depth="2" nType="0" pos="r" purity="0.0e+00" res="0.0e+00" rms="0.0e+00"><Node Cut="2.02354026" IVar="6" NCoef="0" cType="1" depth="3" nType="0" pos="l" purity="0.0e+00" res="0.0e+00" rms="0.0e+00"><Node Cut="0.0102008032" IVar="10" NCoef="0" cType="1" depth="4" nType="0" pos="l" purity="0.0e+00" res="0.0e+00" rms="0.0e+00"><Node Cut="1.51442063" IVar="5" NCoef="0" cType="1" depth="5" nType="0" pos="l" purity="0.0e+00" res="0.0e+00" rms="0.0e+00"><Node Cut="0.0e+00" IVar="-1" NCoef="0" cType="1" depth="6" nType="-99" pos="l" purity="0.0e+00" res="0.37843433" rms="0.0e+00" /><Node Cut="0.0e+00" IVar="-1" NCoef="0" cType="1" depth="6" nType="-99" pos="r" purity="0.0e+00" res="0.169870973" rms="0.0e+00" /></Node><Node Cut="-2.14240527" IVar="0" NCoef="0" cType="1" depth="5" nType="0" pos="r" purity="0.0e+00" res="0.0e+00" rms="0.0e+00"><Node Cut="0.0e+00" IVar="-1" NCoef="0" cType="1" depth="6" nType="-99" pos="l" purity="0.0e+00" res="0.354310155" rms="0.0e+00" /><Node Cut="0.0e+00" IVar="-1" NCoef="0" cType="1" depth="6" nType="-99" pos="r" purity="0.0e+00" res="-0.267895013" rms="0.0e+00" /></Node></Node><Node Cut="5.71227169" IVar="6" NCoef="0" cType="1" depth="4" nType="0" pos="r" purity="0.0e+00" res="0.0e+00" rms="0.0e+00"><Node Cut="0.00226845546" IVar="10" NCoef="0" cType="1" depth="5" nType="0" pos="l" purity="0.0e+00" res="0.0e+00" rms="0.0e+00"><Node Cut="0.0e+00" IVar="-1" NCoef="0" cType="1" depth="6" nType="-99" pos="l" purity="0.0e+00" res="0.15737462" rms="0.0e+00" /><Node Cut="0.0e+00" IVar="-1" NCoef="0" cType="1" depth="6" nType="-99" pos="r" purity="0.0e+00" res="-0.330744356" rms="0.0e+00" /></Node><Node Cut="0.00107348221" IVar="10" NCoef="0" cType="1" depth="5" nType="0" pos="r" purity="0.0e+00" res="0.0e+00" rms="0.0e+00"><Node Cut="0.0e+00" IVar="-1" NCoef="0" cType="1" depth="6" nType="-99" pos="l" purity="0.0e+00" res="-0.222971007" rms="0.0e+00" /><Node Cut="0.0e+00" IVar="-1" NCoef="0" cType="1" depth="6" nType="-99" pos="r" purity="0.0e+00" res="-0.366078138" rms="0.0e+00" /></Node></Node></Node><Node Cut="1.11461782" IVar="5" NCoef="0" cType="1" depth="3" nType="0" pos="r" purity="0.0e+00" res="0.0e+00" rms="0.0e+00"><Node Cut="13.9613237" IVar="4" NCoef="0" cType="1" depth="4" nType="0" pos="l" purity="0.0e+00" res="0.0e+00" rms="0.0e+00"><Node Cut="1.36047244" IVar="6" NCoef="0" cType="1" depth="5" nType="0" pos="l" purity="0.0e+00" res="0.0e+00" rms="0.0e+00"><Node Cut="0.0e+00" IVar="-1" NCoef="0" cType="1" depth="6" nType="-99" pos="l" purity="0.0e+00" res="0.124338552" rms="0.0e+00" /><Node Cut="0.0e+00" IVar="-1" NCoef="0" cType="1" depth="6" nType="-99" pos="r" purity="0.0e+00" res="-0.314016044" rms="0.0e+00" /></Node><Node Cut="-1.93525243" IVar="0" NCoef="0" cType="1" depth="5" nType="0" pos="r" purity="0.0e+00" res="0.0e+00" rms="0.0e+00"><Node Cut="0.0e+00" IVar="-1" NCoef="0" cType="1" depth="6" nType="-99" pos="l" purity="0.0e+00" res="-0.00990503281" rms="0.0e+00" /><Node Cut="0.0e+00" IVar="-1" NCoef="0" cType="1" depth="6" nType="-99" pos="r" purity="0.0e+00" res="-0.321407467" rms="0.0e+00" /></Node></Node><Node Cut="2.95962" IVar="4" NCoef="0" cType="1" depth="4" nType="0" pos="r" purity="0.0e+00" res="0.0e+00" rms="0.0e+00"><Node Cut="0.276700348" IVar="6" NCoef="0" cType="1" depth="5" nType="0" pos="l" purity="0.0e+00" res="0.0e+00" rms="0.0e+00"><Node Cut="0.0e+00" IVar="-1" NCoef="0" cType="1" depth="6" nType="-99" pos="l" purity="0.0e+00" res="-0.00930524524" rms="0.0e+00" /><Node Cut="0.0e+00" IVar="-1" NCoef="0" cType="1" depth="6" nType="-99" pos="r" purity="0.0e+00" res="-0.341353714" rms="0.0e+00" /></Node><Node Cut="-1.9226625" IVar="0" NCoef="0" cType="1" depth="5" nType="0" pos="r" purity="0.0e+00" res="0.0e+00" rms="0.0e+00"><Node Cut="0.0e+00" IVar="-1" NCoef="0" cType="1" depth="6" nType="-99" pos="l" purity="0.0e+00" res="-0.29159382" rms="0.0e+00" /><Node Cut="0.0e+00" IVar="-1" NCoef="0" cType="1" depth="6" nType="-99" pos="r" purity="0.0e+00" res="-0.367974222" rms="0.0e+00" /></Node></Node></Node></Node></Node><Node Cut="2.12501669" IVar="6" NCoef="0" cType="1" depth="1" nType="0" pos="r" purity="0.0e+00" res="0.0e+00" rms="0.0e+00"><Node Cut="3.08222008" IVar="4" NCoef="0" cType="1" depth="2" nType="0" pos="l" purity="0.0e+00" res="0.0e+00" rms="0.0e+00"><Node Cut="5.15507507" IVar="9" NCoef="0" cType="1" depth="3" nType="0" pos="l" purity="0.0e+00" res="0.0e+00" rms="0.0e+00"><Node Cut="2.55098295" IVar="5" NCoef="0" cType="1" depth="4" nType="0" pos="l" purity="0.0e+00" res="0.0e+00" rms="0.0e+00"><Node Cut="0.00234266045" IVar="10" NCoef="0" cType="1" depth="5" nType="0" pos="l" purity="0.0e+00" res="0.0e+00" rms="0.0e+00"><Node Cut="0.0e+00" IVar="-1" NCoef="0" cType="1" depth="6" nType="-99" pos="l" purity="0.0e+00" res="0.352982014" rms="0.0e+00" /><Node Cut="0.0e+00" IVar="-1" NCoef="0" cType="1" depth="6" nType="-99" pos="r" purity="0.0e+00" res="0.254666954" rms="0.0e+00" /></Node><Node Cut="0.00212263968" IVar="10" NCoef="0" cType="1" depth="5" nType="0" pos="r" purity="0.0e+00" res="0.0e+00" rms="0.0e+00"><Node Cut="0.0e+00" IVar="-1" NCoef="0" cType="1" depth="6" nType="-99" pos="l" purity="0.0e+00" res="0.237728253" rms="0.0e+00" /><Node Cut="0.0e+00" IVar="-1" NCoef="0" cType="1" depth="6" nType="-99" pos="r" purity="0.0e+00" res="-0.0618330799" rms="0.0e+00" /></Node></Node><Node Cut="1.53603935" IVar="5" NCoef="0" cType="1" depth="4" nType="0" pos="r" purity="0.0e+00" res="0.0e+00" rms="0.0e+00"><Node Cut="0.011446869" IVar="10" NCoef="0" cType="1" depth="5" nType="0" pos="l" purity="0.0e+00" res="0.0e+00" rms="0.0e+00"><Node Cut="0.0e+00" IVar="-1" NCoef="0" cType="1" depth="6" nType="-99" pos="l" purity="0.0e+00" res="0.157914206" rms="0.0e+00" /><Node Cut="0.0e+00" IVar="-1" NCoef="0" cType="1" depth="6" nType="-99" pos="r" purity="0.0e+00" res="-0.223790213" rms="0.0e+00" /></Node><Node Cut="7.33347845" IVar="9" NCoef="0" cType="1" depth="5" nType="0" pos="r" purity="0.0e+00" res="0.0e+00" rms="0.0e+00"><Node Cut="0.0e+00" IVar="-1" NCoef="0" cType="1" depth="6" nType="-99" pos="l" purity="0.0e+00" res="-0.187507644" rms="0.0e+00" /><Node Cut="0.0e+00" IVar="-1" NCoef="0" cType="1" depth="6" nType="-99" pos="r" purity="0.0e+00" res="-0.356370538" rms="0.0e+00" /></Node></Node></Node><Node Cut="20.2122536" IVar="4" NCoef="0" cType="1" depth="3" nType="0" pos="r" purity="0.0e+00" res="0.0e+00" rms="0.0e+00"><Node Cut="0.933439493" IVar="5" NCoef="0" cType="1" depth="4" nType="0" pos="l" purity="0.0e+00" res="0.0e+00" rms="0.0e+00"><Node Cut="0.0053897351" IVar="10" NCoef="0" cType="1" depth="5" nType="0" pos="l" purity="0.0e+00" res="0.0e+00" rms="0.0e+00"><Node Cut="0.0e+00" IVar="-1" NCoef="0" cType="1" depth="6" nType="-99" pos="l" purity="0.0e+00" res="0.156172395" rms="0.0e+00" /><Node Cut="0.0e+00" IVar="-1" NCoef="0" cType="1" depth="6" nType="-99" pos="r" purity="0.0e+00" res="-0.297869653" rms="0.0e+00" /></Node><Node Cut="3.81977081" IVar="5" NCoef="0" cType="1" depth="5" nType="0" pos="r" purity="0.0e+00" res="0.0e+00" rms="0.0e+00"><Node Cut="0.0e+00" IVar="-1" NCoef="0" cType="1" depth="6" nType="-99" pos="l" purity="0.0e+00" res="-0.128715545" rms="0.0e+00" /><Node Cut="0.0e+00" IVar="-1" NCoef="0" cType="1" depth="6" nType="-99" pos="r" purity="0.0e+00" res="-0.330535769" rms="0.0e+00" /></Node></Node><Node Cut="0.580000997" IVar="5" NCoef="0" cType="1" depth="4" nType="0" pos="r" purity="0.0e+00" res="0.0e+00" rms="0.0e+00"><Node Cut="0.00194346986" IVar="10" NCoef="0" cType="1" depth="5" nType="0" pos="l" purity="0.0e+00" res="0.0e+00" rms="0.0e+00"><Node Cut="0.0e+00" IVar="-1" NCoef="0" cType="1" depth="6" nType="-99" pos="l" purity="0.0e+00" res="-0.199414432" rms="0.0e+00" /><Node Cut="0.0e+00" IVar="-1" NCoef="0" cType="1" depth="6" nType="-99" pos="r" purity="0.0e+00" res="-0.354612529" rms="0.0e+00" /></Node><Node Cut="5.60875034" IVar="5" NCoef="0" cType="1" depth="5" nType="0" pos="r" purity="0.0e+00" res="0.0e+00" rms="0.0e+00"><Node Cut="0.0e+00" IVar="-1" NCoef="0" cType="1" depth="6" nType="-99" pos="l" purity="0.0e+00" res="-0.332351774" rms="0.0e+00" /><Node Cut="0.0e+00" IVar="-1" NCoef="0" cType="1" depth="6" nType="-99" pos="r" purity="0.0e+00" res="-0.367966145" rms="0.0e+00" /></Node></Node></Node></Node><Node Cut="4.86430073" IVar="6" NCoef="0" cType="1" depth="2" nType="0" pos="r" purity="0.0e+00" res="0.0e+00" rms="0.0e+00"><Node Cut="0.00143077271" IVar="10" NCoef="0" cType="1" depth="3" nType="0" pos="l" purity="0.0e+00" res="0.0e+00" rms="0.0e+00"><Node Cut="2.4539957" IVar="4" NCoef="0" cType="1" depth="4" nType="0" pos="l" purity="0.0e+00" res="0.0e+00" rms="0.0e+00"><Node Cut="1.7932291" IVar="5" NCoef="0" cType="1" depth="5" nType="0" pos="l" purity="0.0e+00" res="0.0e+00" rms="0.0e+00"><Node Cut="0.0e+00" IVar="-1" NCoef="0" cType="1" depth="6" nType="-99" pos="l" purity="0.0e+00" res="0.228356913" rms="0.0e+00" /><Node Cut="0.0e+00" IVar="-1" NCoef="0" cType="1" depth="6" nType="-99" pos="r" purity="0.0e+00" res="-0.0277522169" rms="0.0e+00" /></Node><Node Cut="10.056283" IVar="4" NCoef="0" cType="1" depth="5" nType="0" pos="r" purity="0.0e+00" res="0.0e+00" rms="0.0e+00"><Node Cut="0.0e+00" IVar="-1" NCoef="0" cType="1" depth="6" nType="-99" pos="l" purity="0.0e+00" res="-0.170212612" rms="0.0e+00" /><Node Cut="0.0e+00" IVar="-1" NCoef="0" cType="1" depth="6" nType="-99" pos="r" purity="0.0e+00" res="-0.352721989" rms="0.0e+00" /></Node></Node><Node Cut="0.00442780834" IVar="10" NCoef="0" cType="1" depth="4" nType="0" pos="r" purity="0.0e+00" res="0.0e+00" rms="0.0e+00"><Node Cut="1.72765112" IVar="5" NCoef="0" cType="1" depth="5" nType="0" pos="l" purity="0.0e+00" res="0.0e+00" rms="0.0e+00"><Node Cut="0.0e+00" IVar="-1" NCoef="0" cType="1" depth="6" nType="-99" pos="l" purity="0.0e+00" res="-0.0379033908" rms="0.0e+00" /><Node Cut="0.0e+00" IVar="-1" NCoef="0" cType="1" depth="6" nType="-99" pos="r" purity="0.0e+00" res="-0.278488487" rms="0.0e+00" /></Node><Node Cut="0.00684532523" IVar="10" NCoef="0" cType="1" depth="5" nType="0" pos="r" purity="0.0e+00" res="0.0e+00" rms="0.0e+00"><Node Cut="0.0e+00" IVar="-1" NCoef="0" cType="1" depth="6" nType="-99" pos="l" purity="0.0e+00" res="-0.258652896" rms="0.0e+00" /><Node Cut="0.0e+00" IVar="-1" NCoef="0" cType="1" depth="6" nType="-99" pos="r" purity="0.0e+00" res="-0.356783777" rms="0.0e+00" /></Node></Node></Node><Node Cut="0.00108299893" IVar="10" NCoef="0" cType="1" depth="3" nType="0" pos="r" purity="0.0e+00" res="0.0e+00" rms="0.0e+00"><Node Cut="1.77728558" IVar="4" NCoef="0" cType="1" depth="4" nType="0" pos="l" purity="0.0e+00" res="0.0e+00" rms="0.0e+00"><Node Cut="2.98815632" IVar="5" NCoef="0" cType="1" depth="5" nType="0" pos="l" purity="0.0e+00" res="0.0e+00" rms="0.0e+00"><Node Cut="0.0e+00" IVar="-1" NCoef="0" cType="1" depth="6" nType="-99" pos="l" purity="0.0e+00" res="-0.019334903" rms="0.0e+00" /><Node Cut="0.0e+00" IVar="-1" NCoef="0" cType="1" depth="6" nType="-99" pos="r" purity="0.0e+00" res="-0.238394693" rms="0.0e+00" /></Node><Node Cut="2.62592483" IVar="4" NCoef="0" cType="1" depth="5" nType="0" pos="r" purity="0.0e+00" res="0.0e+00" rms="0.0e+00"><Node Cut="0.0e+00" IVar="-1" NCoef="0" cType="1" depth="6" nType="-99" pos="l" purity="0.0e+00" res="-0.271015793" rms="0.0e+00" /><Node Cut="0.0e+00" IVar="-1" NCoef="0" cType="1" depth="6" nType="-99" pos="r" purity="0.0e+00" res="-0.363631189" rms="0.0e+00" /></Node></Node><Node Cut="0.00425423589" IVar="10" NCoef="0" cType="1" depth="4" nType="0" pos="r" purity="0.0e+00" res="0.0e+00" rms="0.0e+00"><Node Cut="2.08276033" IVar="4" NCoef="0" cType="1" depth="5" nType="0" pos="l" purity="0.0e+00" res="0.0e+00" rms="0.0e+00"><Node Cut="0.0e+00" IVar="-1" NCoef="0" cType="1" depth="6" nType="-99" pos="l" purity="0.0e+00" res="-0.281353742" rms="0.0e+00" /><Node Cut="0.0e+00" IVar="-1" NCoef="0" cType="1" depth="6" nType="-99" pos="r" purity="0.0e+00" res="-0.366387248" rms="0.0e+00" /></Node><Node Cut="0.0086551588" IVar="10" NCoef="0" cType="1" depth="5" nType="0" pos="r" purity="0.0e+00" res="0.0e+00" rms="0.0e+00"><Node Cut="0.0e+00" IVar="-1" NCoef="0" cType="1" depth="6" nType="-99" pos="l" purity="0.0e+00" res="-0.348609924" rms="0.0e+00" /><Node Cut="0.0e+00" IVar="-1" NCoef="0" cType="1" depth="6" nType="-99" pos="r" purity="0.0e+00" res="-0.367505461" rms="0.0e+00" /></Node></Node></Node></Node></Node></Node></BinaryTree><BinaryTree boostWeight="1.0e+00" itree="4" type="DecisionTree"><Node Cut="15" IVar="1" NCoef="0" cType="1" depth="0" nType="0" pos="s" purity="0.0e+00" res="0.0e+00" rms="0.0e+00"><Node Cut="8" IVar="1" NCoef="0" cType="1" depth="1" nType="0" pos="l" purity="0.0e+00" res="0.0e+00" rms="0.0e+00"><Node Cut="2.41427922" IVar="6" NCoef="0" cType="1" depth="2" nType="0" pos="l" purity="0.0e+00" res="0.0e+00" rms="0.0e+00"><Node Cut="0.00169868511" IVar="10" NCoef="0" cType="1" depth="3" nType="0" pos="l" purity="0.0e+00" res="0.0e+00" rms="0.0e+00"><Node Cut="1.20254719" IVar="0" NCoef="0" cType="1" depth="4" nType="0" pos="l" purity="0.0e+00" res="0.0e+00" rms="0.0e+00"><Node Cut="-0.31952557" IVar="0" NCoef="0" cType="1" depth="5" nType="0" pos="l" purity="0.0e+00" res="0.0e+00" rms="0.0e+00"><Node Cut="0.0e+00" IVar="-1" NCoef="0" cType="1" depth="6" nType="-99" pos="l" purity="0.0e+00" res="-0.27076602" rms="0.0e+00" /><Node Cut="0.0e+00" IVar="-1" NCoef="0" cType="1" depth="6" nType="-99" pos="r" purity="0.0e+00" res="-0.00201051915" rms="0.0e+00" /></Node><Node Cut="0.42840907" IVar="4" NCoef="0" cType="1" depth="5" nType="0" pos="r" purity="0.0e+00" res="0.0e+00" rms="0.0e+00"><Node Cut="0.0e+00" IVar="-1" NCoef="0" cType="1" depth="6" nType="-99" pos="l" purity="0.0e+00" res="-0.332717359" rms="0.0e+00" /><Node Cut="0.0e+00" IVar="-1" NCoef="0" cType="1" depth="6" nType="-99" pos="r" purity="0.0e+00" res="-0.23014468" rms="0.0e+00" /></Node></Node><Node Cut="0.00513577182" IVar="10" NCoef="0" cType="1" depth="4" nType="0" pos="r" purity="0.0e+00" res="0.0e+00" rms="0.0e+00"><Node Cut="2.95022178" IVar="5" NCoef="0" cType="1" depth="5" nType="0" pos="l" purity="0.0e+00" res="0.0e+00" rms="0.0e+00"><Node Cut="0.0e+00" IVar="-1" NCoef="0" cType="1" depth="6" nType="-99" pos="l" purity="0.0e+00" res="-0.294193178" rms="0.0e+00" /><Node Cut="0.0e+00" IVar="-1" NCoef="0" cType="1" depth="6" nType="-99" pos="r" purity="0.0e+00" res="-0.344171911" rms="0.0e+00" /></Node><Node Cut="0.0095404312" IVar="10" NCoef="0" cType="1" depth="5" nType="0" pos="r" purity="0.0e+00" res="0.0e+00" rms="0.0e+00"><Node Cut="0.0e+00" IVar="-1" NCoef="0" cType="1" depth="6" nType="-99" pos="l" purity="0.0e+00" res="-0.333193541" rms="0.0e+00" /><Node Cut="0.0e+00" IVar="-1" NCoef="0" cType="1" depth="6" nType="-99" pos="r" purity="0.0e+00" res="-0.345447898" rms="0.0e+00" /></Node></Node></Node><Node Cut="5.41629601" IVar="6" NCoef="0" cType="1" depth="3" nType="0" pos="r" purity="0.0e+00" res="0.0e+00" rms="0.0e+00"><Node Cut="3.12736511" IVar="5" NCoef="0" cType="1" depth="4" nType="0" pos="l" purity="0.0e+00" res="0.0e+00" rms="0.0e+00"><Node Cut="0.00205583079" IVar="10" NCoef="0" cType="1" depth="5" nType="0" pos="l" purity="0.0e+00" res="0.0e+00" rms="0.0e+00"><Node Cut="0.0e+00" IVar="-1" NCoef="0" cType="1" depth="6" nType="-99" pos="l" purity="0.0e+00" res="-0.300505579" rms="0.0e+00" /><Node Cut="0.0e+00" IVar="-1" NCoef="0" cType="1" depth="6" nType="-99" pos="r" purity="0.0e+00" res="-0.341531157" rms="0.0e+00" /></Node><Node Cut="0.0e+00" IVar="-1" NCoef="0" cType="1" depth="5" nType="-99" pos="r" purity="0.0e+00" res="-0.344607234" rms="0.0e+00" /></Node><Node Cut="0.0e+00" IVar="-1" NCoef="0" cType="1" depth="4" nType="-99" pos="r" purity="0.0e+00" res="-0.346830815" rms="0.0e+00" /></Node></Node><Node Cut="2.21059942" IVar="4" NCoef="0" cType="1" depth="2" nType="0" pos="r" purity="0.0e+00" res="0.0e+00" rms="0.0e+00"><Node Cut="2.04175568" IVar="6" NCoef="0" cType="1" depth="3" nType="0" pos="l" purity="0.0e+00" res="0.0e+00" rms="0.0e+00"><Node Cut="1.84045529" IVar="5" NCoef="0" cType="1" depth="4" nType="0" pos="l" purity="0.0e+00" res="0.0e+00" rms="0.0e+00"><Node Cut="0.00539421476" IVar="10" NCoef="0" cType="1" depth="5" nType="0" pos="l" purity="0.0e+00" res="0.0e+00" rms="0.0e+00"><Node Cut="0.0e+00" IVar="-1" NCoef="0" cType="1" depth="6" nType="-99" pos="l" purity="0.0e+00" res="0.321213126" rms="0.0e+00" /><Node Cut="0.0e+00" IVar="-1" NCoef="0" cType="1" depth="6" nType="-99" pos="r" purity="0.0e+00" res="0.0951330587" rms="0.0e+00" /></Node><Node Cut="1.88882184" IVar="9" NCoef="0" cType="1" depth="5" nType="0" pos="r" purity="0.0e+00" res="0.0e+00" rms="0.0e+00"><Node Cut="0.0e+00" IVar="-1" NCoef="0" cType="1" depth="6" nType="-99" pos="l" purity="0.0e+00" res="0.14198032" rms="0.0e+00" /><Node Cut="0.0e+00" IVar="-1" NCoef="0" cType="1" depth="6" nType="-99" pos="r" purity="0.0e+00" res="-0.214498281" rms="0.0e+00" /></Node></Node><Node Cut="0.960679531" IVar="5" NCoef="0" cType="1" depth="4" nType="0" pos="r" purity="0.0e+00" res="0.0e+00" rms="0.0e+00"><Node Cut="6.60957241" IVar="6" NCoef="0" cType="1" depth="5" nType="0" pos="l" purity="0.0e+00" res="0.0e+00" rms="0.0e+00"><Node Cut="0.0e+00" IVar="-1" NCoef="0" cType="1" depth="6" nType="-99" pos="l" purity="0.0e+00" res="0.114823498" rms="0.0e+00" /><Node Cut="0.0e+00" IVar="-1" NCoef="0" cType="1" depth="6" nType="-99" pos="r" purity="0.0e+00" res="-0.22941789" rms="0.0e+00" /></Node><Node Cut="0.000910289178" IVar="10" NCoef="0" cType="1" depth="5" nType="0" pos="r" purity="0.0e+00" res="0.0e+00" rms="0.0e+00"><Node Cut="0.0e+00" IVar="-1" NCoef="0" cType="1" depth="6" nType="-99" pos="l" purity="0.0e+00" res="-0.154954612" rms="0.0e+00" /><Node Cut="0.0e+00" IVar="-1" NCoef="0" cType="1" depth="6" nType="-99" pos="r" purity="0.0e+00" res="-0.308422357" rms="0.0e+00" /></Node></Node></Node><Node Cut="0.559915543" IVar="5" NCoef="0" cType="1" depth="3" nType="0" pos="r" purity="0.0e+00" res="0.0e+00" rms="0.0e+00"><Node Cut="8.6560688" IVar="4" NCoef="0" cType="1" depth="4" nType="0" pos="l" purity="0.0e+00" res="0.0e+00" rms="0.0e+00"><Node Cut="0.00774908811" IVar="10" NCoef="0" cType="1" depth="5" nType="0" pos="l" purity="0.0e+00" res="0.0e+00" rms="0.0e+00"><Node Cut="0.0e+00" IVar="-1" NCoef="0" cType="1" depth="6" nType="-99" pos="l" purity="0.0e+00" res="0.0952546895" rms="0.0e+00" /><Node Cut="0.0e+00" IVar="-1" NCoef="0" cType="1" depth="6" nType="-99" pos="r" purity="0.0e+00" res="-0.359680027" rms="0.0e+00" /></Node><Node Cut="-1.72324181" IVar="0" NCoef="0" cType="1" depth="5" nType="0" pos="r" purity="0.0e+00" res="0.0e+00" rms="0.0e+00"><Node Cut="0.0e+00" IVar="-1" NCoef="0" cType="1" depth="6" nType="-99" pos="l" purity="0.0e+00" res="-0.014419903" rms="0.0e+00" /><Node Cut="0.0e+00" IVar="-1" NCoef="0" cType="1" depth="6" nType="-99" pos="r" purity="0.0e+00" res="-0.285005778" rms="0.0e+00" /></Node></Node><Node Cut="2.49502707" IVar="5" NCoef="0" cType="1" depth="4" nType="0" pos="r" purity="0.0e+00" res="0.0e+00" rms="0.0e+00"><Node Cut="8.04624653" IVar="4" NCoef="0" cType="1" depth="5" nType="0" pos="l" purity="0.0e+00" res="0.0e+00" rms="0.0e+00"><Node Cut="0.0e+00" IVar="-1" NCoef="0" cType="1" depth="6" nType="-99" pos="l" purity="0.0e+00" res="-0.152849078" rms="0.0e+00" /><Node Cut="0.0e+00" IVar="-1" NCoef="0" cType="1" depth="6" nType="-99" pos="r" purity="0.0e+00" res="-0.314593405" rms="0.0e+00" /></Node><Node Cut="5.14993238" IVar="5" NCoef="0" cType="1" depth="5" nType="0" pos="r" purity="0.0e+00" res="0.0e+00" rms="0.0e+00"><Node Cut="0.0e+00" IVar="-1" NCoef="0" cType="1" depth="6" nType="-99" pos="l" purity="0.0e+00" res="-0.325107515" rms="0.0e+00" /><Node Cut="0.0e+00" IVar="-1" NCoef="0" cType="1" depth="6" nType="-99" pos="r" purity="0.0e+00" res="-0.34924835" rms="0.0e+00" /></Node></Node></Node></Node></Node><Node Cut="1.84064877" IVar="6" NCoef="0" cType="1" depth="1" nType="0" pos="r" purity="0.0e+00" res="0.0e+00" rms="0.0e+00"><Node Cut="8.36147785" IVar="4" NCoef="0" cType="1" depth="2" nType="0" pos="l" purity="0.0e+00" res="0.0e+00" rms="0.0e+00"><Node Cut="3.80006075" IVar="9" NCoef="0" cType="1" depth="3" nType="0" pos="l" purity="0.0e+00" res="0.0e+00" rms="0.0e+00"><Node Cut="2.99811602" IVar="5" NCoef="0" cType="1" depth="4" nType="0" pos="l" purity="0.0e+00" res="0.0e+00" rms="0.0e+00"><Node Cut="0.00186942297" IVar="10" NCoef="0" cType="1" depth="5" nType="0" pos="l" purity="0.0e+00" res="0.0e+00" rms="0.0e+00"><Node Cut="0.0e+00" IVar="-1" NCoef="0" cType="1" depth="6" nType="-99" pos="l" purity="0.0e+00" res="0.327489316" rms="0.0e+00" /><Node Cut="0.0e+00" IVar="-1" NCoef="0" cType="1" depth="6" nType="-99" pos="r" purity="0.0e+00" res="0.239867166" rms="0.0e+00" /></Node><Node Cut="2.05694485" IVar="4" NCoef="0" cType="1" depth="5" nType="0" pos="r" purity="0.0e+00" res="0.0e+00" rms="0.0e+00"><Node Cut="0.0e+00" IVar="-1" NCoef="0" cType="1" depth="6" nType="-99" pos="l" purity="0.0e+00" res="0.184501559" rms="0.0e+00" /><Node Cut="0.0e+00" IVar="-1" NCoef="0" cType="1" depth="6" nType="-99" pos="r" purity="0.0e+00" res="-0.218273386" rms="0.0e+00" /></Node></Node><Node Cut="0.0107352324" IVar="10" NCoef="0" cType="1" depth="4" nType="0" pos="r" purity="0.0e+00" res="0.0e+00" rms="0.0e+00"><Node Cut="1.74854922" IVar="5" NCoef="0" cType="1" depth="5" nType="0" pos="l" purity="0.0e+00" res="0.0e+00" rms="0.0e+00"><Node Cut="0.0e+00" IVar="-1" NCoef="0" cType="1" depth="6" nType="-99" pos="l" purity="0.0e+00" res="0.153798088" rms="0.0e+00" /><Node Cut="0.0e+00" IVar="-1" NCoef="0" cType="1" depth="6" nType="-99" pos="r" purity="0.0e+00" res="-0.144666359" rms="0.0e+00" /></Node><Node Cut="0.587420225" IVar="5" NCoef="0" cType="1" depth="5" nType="0" pos="r" purity="0.0e+00" res="0.0e+00" rms="0.0e+00"><Node Cut="0.0e+00" IVar="-1" NCoef="0" cType="1" depth="6" nType="-99" pos="l" purity="0.0e+00" res="-0.112348914" rms="0.0e+00" /><Node Cut="0.0e+00" IVar="-1" NCoef="0" cType="1" depth="6" nType="-99" pos="r" purity="0.0e+00" res="-0.295098752" rms="0.0e+00" /></Node></Node></Node><Node Cut="30.3981838" IVar="4" NCoef="0" cType="1" depth="3" nType="0" pos="r" purity="0.0e+00" res="0.0e+00" rms="0.0e+00"><Node Cut="0.00156648178" IVar="10" NCoef="0" cType="1" depth="4" nType="0" pos="l" purity="0.0e+00" res="0.0e+00" rms="0.0e+00"><Node Cut="2.35549378" IVar="5" NCoef="0" cType="1" depth="5" nType="0" pos="l" purity="0.0e+00" res="0.0e+00" rms="0.0e+00"><Node Cut="0.0e+00" IVar="-1" NCoef="0" cType="1" depth="6" nType="-99" pos="l" purity="0.0e+00" res="0.125335291" rms="0.0e+00" /><Node Cut="0.0e+00" IVar="-1" NCoef="0" cType="1" depth="6" nType="-99" pos="r" purity="0.0e+00" res="-0.231808826" rms="0.0e+00" /></Node><Node Cut="0.00758757442" IVar="10" NCoef="0" cType="1" depth="5" nType="0" pos="r" purity="0.0e+00" res="0.0e+00" rms="0.0e+00"><Node Cut="0.0e+00" IVar="-1" NCoef="0" cType="1" depth="6" nType="-99" pos="l" purity="0.0e+00" res="-0.195369318" rms="0.0e+00" /><Node Cut="0.0e+00" IVar="-1" NCoef="0" cType="1" depth="6" nType="-99" pos="r" purity="0.0e+00" res="-0.347142696" rms="0.0e+00" /></Node></Node><Node Cut="0.521444976" IVar="5" NCoef="0" cType="1" depth="4" nType="0" pos="r" purity="0.0e+00" res="0.0e+00" rms="0.0e+00"><Node Cut="10" IVar="3" NCoef="0" cType="1" depth="5" nType="0" pos="l" purity="0.0e+00" res="0.0e+00" rms="0.0e+00"><Node Cut="0.0e+00" IVar="-1" NCoef="0" cType="1" depth="6" nType="-99" pos="l" purity="0.0e+00" res="-0.340039104" rms="0.0e+00" /><Node Cut="0.0e+00" IVar="-1" NCoef="0" cType="1" depth="6" nType="-99" pos="r" purity="0.0e+00" res="-0.177441925" rms="0.0e+00" /></Node><Node Cut="5.75189781" IVar="5" NCoef="0" cType="1" depth="5" nType="0" pos="r" purity="0.0e+00" res="0.0e+00" rms="0.0e+00"><Node Cut="0.0e+00" IVar="-1" NCoef="0" cType="1" depth="6" nType="-99" pos="l" purity="0.0e+00" res="-0.31046173" rms="0.0e+00" /><Node Cut="0.0e+00" IVar="-1" NCoef="0" cType="1" depth="6" nType="-99" pos="r" purity="0.0e+00" res="-0.346033543" rms="0.0e+00" /></Node></Node></Node></Node><Node Cut="1.45374942" IVar="9" NCoef="0" cType="1" depth="2" nType="0" pos="r" purity="0.0e+00" res="0.0e+00" rms="0.0e+00"><Node Cut="7.40285444" IVar="6" NCoef="0" cType="1" depth="3" nType="0" pos="l" purity="0.0e+00" res="0.0e+00" rms="0.0e+00"><Node Cut="2.20533466" IVar="5" NCoef="0" cType="1" depth="4" nType="0" pos="l" purity="0.0e+00" res="0.0e+00" rms="0.0e+00"><Node Cut="2.04506397" IVar="4" NCoef="0" cType="1" depth="5" nType="0" pos="l" purity="0.0e+00" res="0.0e+00" rms="0.0e+00"><Node Cut="0.0e+00" IVar="-1" NCoef="0" cType="1" depth="6" nType="-99" pos="l" purity="0.0e+00" res="0.17713055" rms="0.0e+00" /><Node Cut="0.0e+00" IVar="-1" NCoef="0" cType="1" depth="6" nType="-99" pos="r" purity="0.0e+00" res="-0.162549198" rms="0.0e+00" /></Node><Node Cut="1.75536716" IVar="4" NCoef="0" cType="1" depth="5" nType="0" pos="r" purity="0.0e+00" res="0.0e+00" rms="0.0e+00"><Node Cut="0.0e+00" IVar="-1" NCoef="0" cType="1" depth="6" nType="-99" pos="l" purity="0.0e+00" res="-0.0452162325" rms="0.0e+00" /><Node Cut="0.0e+00" IVar="-1" NCoef="0" cType="1" depth="6" nType="-99" pos="r" purity="0.0e+00" res="-0.312322915" rms="0.0e+00" /></Node></Node><Node Cut="1.82802653" IVar="4" NCoef="0" cType="1" depth="4" nType="0" pos="r" purity="0.0e+00" res="0.0e+00" rms="0.0e+00"><Node Cut="15.4462242" IVar="6" NCoef="0" cType="1" depth="5" nType="0" pos="l" purity="0.0e+00" res="0.0e+00" rms="0.0e+00"><Node Cut="0.0e+00" IVar="-1" NCoef="0" cType="1" depth="6" nType="-99" pos="l" purity="0.0e+00" res="-0.0947949663" rms="0.0e+00" /><Node Cut="0.0e+00" IVar="-1" NCoef="0" cType="1" depth="6" nType="-99" pos="r" purity="0.0e+00" res="-0.238072857" rms="0.0e+00" /></Node><Node Cut="2.39028168" IVar="4" NCoef="0" cType="1" depth="5" nType="0" pos="r" purity="0.0e+00" res="0.0e+00" rms="0.0e+00"><Node Cut="0.0e+00" IVar="-1" NCoef="0" cType="1" depth="6" nType="-99" pos="l" purity="0.0e+00" res="-0.267835706" rms="0.0e+00" /><Node Cut="0.0e+00" IVar="-1" NCoef="0" cType="1" depth="6" nType="-99" pos="r" purity="0.0e+00" res="-0.341593713" rms="0.0e+00" /></Node></Node></Node><Node Cut="4.09401131" IVar="9" NCoef="0" cType="1" depth="3" nType="0" pos="r" purity="0.0e+00" res="0.0e+00" rms="0.0e+00"><Node Cut="7.13594151" IVar="6" NCoef="0" cType="1" depth="4" nType="0" pos="l" purity="0.0e+00" res="0.0e+00" rms="0.0e+00"><Node Cut="1.86557698" IVar="5" NCoef="0" cType="1" depth="5" nType="0" pos="l" purity="0.0e+00" res="0.0e+00" rms="0.0e+00"><Node Cut="0.0e+00" IVar="-1" NCoef="0" cType="1" depth="6" nType="-99" pos="l" purity="0.0e+00" res="-0.0572634563" rms="0.0e+00" /><Node Cut="0.0e+00" IVar="-1" NCoef="0" cType="1" depth="6" nType="-99" pos="r" purity="0.0e+00" res="-0.246574089" rms="0.0e+00" /></Node><Node Cut="12.2498169" IVar="6" NCoef="0" cType="1" depth="5" nType="0" pos="r" purity="0.0e+00" res="0.0e+00" rms="0.0e+00"><Node Cut="0.0e+00" IVar="-1" NCoef="0" cType="1" depth="6" nType="-99" pos="l" purity="0.0e+00" res="-0.256640881" rms="0.0e+00" /><Node Cut="0.0e+00" IVar="-1" NCoef="0" cType="1" depth="6" nType="-99" pos="r" purity="0.0e+00" res="-0.318682104" rms="0.0e+00" /></Node></Node><Node Cut="0.500065207" IVar="5" NCoef="0" cType="1" depth="4" nType="0" pos="r" purity="0.0e+00" res="0.0e+00" rms="0.0e+00"><Node Cut="0.00842703134" IVar="10" NCoef="0" cType="1" depth="5" nType="0" pos="l" purity="0.0e+00" res="0.0e+00" rms="0.0e+00"><Node Cut="0.0e+00" IVar="-1" NCoef="0" cType="1" depth="6" nType="-99" pos="l" purity="0.0e+00" res="-0.185536042" rms="0.0e+00" /><Node Cut="0.0e+00" IVar="-1" NCoef="0" cType="1" depth="6" nType="-99" pos="r" purity="0.0e+00" res="-0.332683653" rms="0.0e+00" /></Node><Node Cut="0.448702395" IVar="11" NCoef="0" cType="1" depth="5" nType="0" pos="r" purity="0.0e+00" res="0.0e+00" rms="0.0e+00"><Node Cut="0.0e+00" IVar="-1" NCoef="0" cType="1" depth="6" nType="-99" pos="l" purity="0.0e+00" res="-0.344263256" rms="0.0e+00" /><Node Cut="0.0e+00" IVar="-1" NCoef="0" cType="1" depth="6" nType="-99" pos="r" purity="0.0e+00" res="-0.238145947" rms="0.0e+00" /></Node></Node></Node></Node></Node></Node></BinaryTree><BinaryTree boostWeight="1.0e+00" itree="5" type="DecisionTree"><Node Cut="11" IVar="1" NCoef="0" cType="1" depth="0" nType="0" pos="s" purity="0.0e+00" res="0.0e+00" rms="0.0e+00"><Node Cut="2.03451562" IVar="6" NCoef="0" cType="1" depth="1" nType="0" pos="l" purity="0.0e+00" res="0.0e+00" rms="0.0e+00"><Node Cut="0.00169868511" IVar="10" NCoef="0" cType="1" depth="2" nType="0" pos="l" purity="0.0e+00" res="0.0e+00" rms="0.0e+00"><Node Cut="1.62345159" IVar="5" NCoef="0" cType="1" depth="3" nType="0" pos="l" purity="0.0e+00" res="0.0e+00" rms="0.0e+00"><Node Cut="6" IVar="1" NCoef="0" cType="1" depth="4" nType="0" pos="l" purity="0.0e+00" res="0.0e+00" rms="0.0e+00"><Node Cut="1.13433838" IVar="0" NCoef="0" cType="1" depth="5" nType="0" pos="l" purity="0.0e+00" res="0.0e+00" rms="0.0e+00"><Node Cut="0.0e+00" IVar="-1" NCoef="0" cType="1" depth="6" nType="-99" pos="l" purity="0.0e+00" res="-0.0939876288" rms="0.0e+00" /><Node Cut="0.0e+00" IVar="-1" NCoef="0" cType="1" depth="6" nType="-99" pos="r" purity="0.0e+00" res="-0.277965873" rms="0.0e+00" /></Node><Node Cut="6.07536316" IVar="4" NCoef="0" cType="1" depth="5" nType="0" pos="r" purity="0.0e+00" res="0.0e+00" rms="0.0e+00"><Node Cut="0.0e+00" IVar="-1" NCoef="0" cType="1" depth="6" nType="-99" pos="l" purity="0.0e+00" res="0.476310045" rms="0.0e+00" /><Node Cut="0.0e+00" IVar="-1" NCoef="0" cType="1" depth="6" nType="-99" pos="r" purity="0.0e+00" res="-0.169629678" rms="0.0e+00" /></Node></Node><Node Cut="3.86025763" IVar="5" NCoef="0" cType="1" depth="4" nType="0" pos="r" purity="0.0e+00" res="0.0e+00" rms="0.0e+00"><Node Cut="1.20582223" IVar="0" NCoef="0" cType="1" depth="5" nType="0" pos="l" purity="0.0e+00" res="0.0e+00" rms="0.0e+00"><Node Cut="0.0e+00" IVar="-1" NCoef="0" cType="1" depth="6" nType="-99" pos="l" purity="0.0e+00" res="-0.177390963" rms="0.0e+00" /><Node Cut="0.0e+00" IVar="-1" NCoef="0" cType="1" depth="6" nType="-99" pos="r" purity="0.0e+00" res="-0.305524647" rms="0.0e+00" /></Node><Node Cut="6.60001659" IVar="5" NCoef="0" cType="1" depth="5" nType="0" pos="r" purity="0.0e+00" res="0.0e+00" rms="0.0e+00"><Node Cut="0.0e+00" IVar="-1" NCoef="0" cType="1" depth="6" nType="-99" pos="l" purity="0.0e+00" res="-0.279486865" rms="0.0e+00" /><Node Cut="0.0e+00" IVar="-1" NCoef="0" cType="1" depth="6" nType="-99" pos="r" purity="0.0e+00" res="-0.329011887" rms="0.0e+00" /></Node></Node></Node><Node Cut="0.00533367693" IVar="10" NCoef="0" cType="1" depth="3" nType="0" pos="r" purity="0.0e+00" res="0.0e+00" rms="0.0e+00"><Node Cut="7" IVar="1" NCoef="0" cType="1" depth="4" nType="0" pos="l" purity="0.0e+00" res="0.0e+00" rms="0.0e+00"><Node Cut="-2.3948307" IVar="0" NCoef="0" cType="1" depth="5" nType="0" pos="l" purity="0.0e+00" res="0.0e+00" rms="0.0e+00"><Node Cut="0.0e+00" IVar="-1" NCoef="0" cType="1" depth="6" nType="-99" pos="l" purity="0.0e+00" res="0.139451489" rms="0.0e+00" /><Node Cut="0.0e+00" IVar="-1" NCoef="0" cType="1" depth="6" nType="-99" pos="r" purity="0.0e+00" res="-0.289193094" rms="0.0e+00" /></Node><Node Cut="2.3182416" IVar="4" NCoef="0" cType="1" depth="5" nType="0" pos="r" purity="0.0e+00" res="0.0e+00" rms="0.0e+00"><Node Cut="0.0e+00" IVar="-1" NCoef="0" cType="1" depth="6" nType="-99" pos="l" purity="0.0e+00" res="0.33340764" rms="0.0e+00" /><Node Cut="0.0e+00" IVar="-1" NCoef="0" cType="1" depth="6" nType="-99" pos="r" purity="0.0e+00" res="-0.261804819" rms="0.0e+00" /></Node></Node><Node Cut="-2.38332033" IVar="0" NCoef="0" cType="1" depth="4" nType="0" pos="r" purity="0.0e+00" res="0.0e+00" rms="0.0e+00"><Node Cut="0.401593983" IVar="4" NCoef="0" cType="1" depth="5" nType="0" pos="l" purity="0.0e+00" res="0.0e+00" rms="0.0e+00"><Node Cut="0.0e+00" IVar="-1" NCoef="0" cType="1" depth="6" nType="-99" pos="l" purity="0.0e+00" res="-0.283627927" rms="0.0e+00" /><Node Cut="0.0e+00" IVar="-1" NCoef="0" cType="1" depth="6" nType="-99" pos="r" purity="0.0e+00" res="0.150933519" rms="0.0e+00" /></Node><Node Cut="0.0110214548" IVar="10" NCoef="0" cType="1" depth="5" nType="0" pos="r" purity="0.0e+00" res="0.0e+00" rms="0.0e+00"><Node Cut="0.0e+00" IVar="-1" NCoef="0" cType="1" depth="6" nType="-99" pos="l" purity="0.0e+00" res="-0.315573245" rms="0.0e+00" /><Node Cut="0.0e+00" IVar="-1" NCoef="0" cType="1" depth="6" nType="-99" pos="r" purity="0.0e+00" res="-0.331472486" rms="0.0e+00" /></Node></Node></Node></Node><Node Cut="3.66397476" IVar="6" NCoef="0" cType="1" depth="2" nType="0" pos="r" purity="0.0e+00" res="0.0e+00" rms="0.0e+00"><Node Cut="7" IVar="1" NCoef="0" cType="1" depth="3" nType="0" pos="l" purity="0.0e+00" res="0.0e+00" rms="0.0e+00"><Node Cut="0.000875487574" IVar="10" NCoef="0" cType="1" depth="4" nType="0" pos="l" purity="0.0e+00" res="0.0e+00" rms="0.0e+00"><Node Cut="1.42491567" IVar="5" NCoef="0" cType="1" depth="5" nType="0" pos="l" purity="0.0e+00" res="0.0e+00" rms="0.0e+00"><Node Cut="0.0e+00" IVar="-1" NCoef="0" cType="1" depth="6" nType="-99" pos="l" purity="0.0e+00" res="-0.202590123" rms="0.0e+00" /><Node Cut="0.0e+00" IVar="-1" NCoef="0" cType="1" depth="6" nType="-99" pos="r" purity="0.0e+00" res="-0.309184074" rms="0.0e+00" /></Node><Node Cut="7.6309414e-05" IVar="11" NCoef="0" cType="1" depth="5" nType="0" pos="r" purity="0.0e+00" res="0.0e+00" rms="0.0e+00"><Node Cut="0.0e+00" IVar="-1" NCoef="0" cType="1" depth="6" nType="-99" pos="l" purity="0.0e+00" res="-0.15180479" rms="0.0e+00" /><Node Cut="0.0e+00" IVar="-1" NCoef="0" cType="1" depth="6" nType="-99" pos="r" purity="0.0e+00" res="-0.322040081" rms="0.0e+00" /></Node></Node><Node Cut="1.71127677" IVar="4" NCoef="0" cType="1" depth="4" nType="0" pos="r" purity="0.0e+00" res="0.0e+00" rms="0.0e+00"><Node Cut="0.00491434895" IVar="10" NCoef="0" cType="1" depth="5" nType="0" pos="l" purity="0.0e+00" res="0.0e+00" rms="0.0e+00"><Node Cut="0.0e+00" IVar="-1" NCoef="0" cType="1" depth="6" nType="-99" pos="l" purity="0.0e+00" res="0.278923035" rms="0.0e+00" /><Node Cut="0.0e+00" IVar="-1" NCoef="0" cType="1" depth="6" nType="-99" pos="r" purity="0.0e+00" res="-0.334645092" rms="0.0e+00" /></Node><Node Cut="3.75871897" IVar="4" NCoef="0" cType="1" depth="5" nType="0" pos="r" purity="0.0e+00" res="0.0e+00" rms="0.0e+00"><Node Cut="0.0e+00" IVar="-1" NCoef="0" cType="1" depth="6" nType="-99" pos="l" purity="0.0e+00" res="-0.0966943428" rms="0.0e+00" /><Node Cut="0.0e+00" IVar="-1" NCoef="0" cType="1" depth="6" nType="-99" pos="r" purity="0.0e+00" res="-0.319258958" rms="0.0e+00" /></Node></Node></Node><Node Cut="5.76390362" IVar="6" NCoef="0" cType="1" depth="3" nType="0" pos="r" purity="0.0e+00" res="0.0e+00" rms="0.0e+00"><Node Cut="8" IVar="1" NCoef="0" cType="1" depth="4" nType="0" pos="l" purity="0.0e+00" res="0.0e+00" rms="0.0e+00"><Node Cut="2.12469816" IVar="5" NCoef="0" cType="1" depth="5" nType="0" pos="l" purity="0.0e+00" res="0.0e+00" rms="0.0e+00"><Node Cut="0.0e+00" IVar="-1" NCoef="0" cType="1" depth="6" nType="-99" pos="l" purity="0.0e+00" res="-0.30842936" rms="0.0e+00" /><Node Cut="0.0e+00" IVar="-1" NCoef="0" cType="1" depth="6" nType="-99" pos="r" purity="0.0e+00" res="-0.329128683" rms="0.0e+00" /></Node><Node Cut="1.34134698" IVar="4" NCoef="0" cType="1" depth="5" nType="0" pos="r" purity="0.0e+00" res="0.0e+00" rms="0.0e+00"><Node Cut="0.0e+00" IVar="-1" NCoef="0" cType="1" depth="6" nType="-99" pos="l" purity="0.0e+00" res="0.00890777167" rms="0.0e+00" /><Node Cut="0.0e+00" IVar="-1" NCoef="0" cType="1" depth="6" nType="-99" pos="r" purity="0.0e+00" res="-0.308538944" rms="0.0e+00" /></Node></Node><Node Cut="0.0e+00" IVar="-1" NCoef="0" cType="1" depth="4" nType="-99" pos="r" purity="0.0e+00" res="-0.33236441" rms="0.0e+00" /></Node></Node></Node><Node Cut="1.55502129" IVar="6" NCoef="0" cType="1" depth="1" nType="0" pos="r" purity="0.0e+00" res="0.0e+00" rms="0.0e+00"><Node Cut="2.66410732" IVar="4" NCoef="0" cType="1" depth="2" nType="0" pos="l" purity="0.0e+00" res="0.0e+00" rms="0.0e+00"><Node Cut="3.30582309" IVar="9" NCoef="0" cType="1" depth="3" nType="0" pos="l" purity="0.0e+00" res="0.0e+00" rms="0.0e+00"><Node Cut="2.18911552" IVar="5" NCoef="0" cType="1" depth="4" nType="0" pos="l" purity="0.0e+00" res="0.0e+00" rms="0.0e+00"><Node Cut="0.0017565802" IVar="10" NCoef="0" cType="1" depth="5" nType="0" pos="l" purity="0.0e+00" res="0.0e+00" rms="0.0e+00"><Node Cut="0.0e+00" IVar="-1" NCoef="0" cType="1" depth="6" nType="-99" pos="l" purity="0.0e+00" res="0.313046992" rms="0.0e+00" /><Node Cut="0.0e+00" IVar="-1" NCoef="0" cType="1" depth="6" nType="-99" pos="r" purity="0.0e+00" res="0.238957629" rms="0.0e+00" /></Node><Node Cut="7.46984577" IVar="7" NCoef="0" cType="1" depth="5" nType="0" pos="r" purity="0.0e+00" res="0.0e+00" rms="0.0e+00"><Node Cut="0.0e+00" IVar="-1" NCoef="0" cType="1" depth="6" nType="-99" pos="l" purity="0.0e+00" res="0.179024309" rms="0.0e+00" /><Node Cut="0.0e+00" IVar="-1" NCoef="0" cType="1" depth="6" nType="-99" pos="r" purity="0.0e+00" res="-0.605425954" rms="0.0e+00" /></Node></Node><Node Cut="13.8331089" IVar="9" NCoef="0" cType="1" depth="4" nType="0" pos="r" purity="0.0e+00" res="0.0e+00" rms="0.0e+00"><Node Cut="0.549502134" IVar="5" NCoef="0" cType="1" depth="5" nType="0" pos="l" purity="0.0e+00" res="0.0e+00" rms="0.0e+00"><Node Cut="0.0e+00" IVar="-1" NCoef="0" cType="1" depth="6" nType="-99" pos="l" purity="0.0e+00" res="0.194440499" rms="0.0e+00" /><Node Cut="0.0e+00" IVar="-1" NCoef="0" cType="1" depth="6" nType="-99" pos="r" purity="0.0e+00" res="-0.0190112926" rms="0.0e+00" /></Node><Node Cut="0.595489562" IVar="5" NCoef="0" cType="1" depth="5" nType="0" pos="r" purity="0.0e+00" res="0.0e+00" rms="0.0e+00"><Node Cut="0.0e+00" IVar="-1" NCoef="0" cType="1" depth="6" nType="-99" pos="l" purity="0.0e+00" res="-0.110377647" rms="0.0e+00" /><Node Cut="0.0e+00" IVar="-1" NCoef="0" cType="1" depth="6" nType="-99" pos="r" purity="0.0e+00" res="-0.27475813" rms="0.0e+00" /></Node></Node></Node><Node Cut="26.278677" IVar="4" NCoef="0" cType="1" depth="3" nType="0" pos="r" purity="0.0e+00" res="0.0e+00" rms="0.0e+00"><Node Cut="9" IVar="3" NCoef="0" cType="1" depth="4" nType="0" pos="l" purity="0.0e+00" res="0.0e+00" rms="0.0e+00"><Node Cut="-2.34379721" IVar="0" NCoef="0" cType="1" depth="5" nType="0" pos="l" purity="0.0e+00" res="0.0e+00" rms="0.0e+00"><Node Cut="0.0e+00" IVar="-1" NCoef="0" cType="1" depth="6" nType="-99" pos="l" purity="0.0e+00" res="0.0690476075" rms="0.0e+00" /><Node Cut="0.0e+00" IVar="-1" NCoef="0" cType="1" depth="6" nType="-99" pos="r" purity="0.0e+00" res="-0.363792837" rms="0.0e+00" /></Node><Node Cut="1.34852827" IVar="5" NCoef="0" cType="1" depth="5" nType="0" pos="r" purity="0.0e+00" res="0.0e+00" rms="0.0e+00"><Node Cut="0.0e+00" IVar="-1" NCoef="0" cType="1" depth="6" nType="-99" pos="l" purity="0.0e+00" res="0.0973581299" rms="0.0e+00" /><Node Cut="0.0e+00" IVar="-1" NCoef="0" cType="1" depth="6" nType="-99" pos="r" purity="0.0e+00" res="-0.156484887" rms="0.0e+00" /></Node></Node><Node Cut="0.970303535" IVar="5" NCoef="0" cType="1" depth="4" nType="0" pos="r" purity="0.0e+00" res="0.0e+00" rms="0.0e+00"><Node Cut="0.00111466052" IVar="10" NCoef="0" cType="1" depth="5" nType="0" pos="l" purity="0.0e+00" res="0.0e+00" rms="0.0e+00"><Node Cut="0.0e+00" IVar="-1" NCoef="0" cType="1" depth="6" nType="-99" pos="l" purity="0.0e+00" res="-0.133917645" rms="0.0e+00" /><Node Cut="0.0e+00" IVar="-1" NCoef="0" cType="1" depth="6" nType="-99" pos="r" purity="0.0e+00" res="-0.288724661" rms="0.0e+00" /></Node><Node Cut="5.75302172" IVar="5" NCoef="0" cType="1" depth="5" nType="0" pos="r" purity="0.0e+00" res="0.0e+00" rms="0.0e+00"><Node Cut="0.0e+00" IVar="-1" NCoef="0" cType="1" depth="6" nType="-99" pos="l" purity="0.0e+00" res="-0.288894325" rms="0.0e+00" /><Node Cut="0.0e+00" IVar="-1" NCoef="0" cType="1" depth="6" nType="-99" pos="r" purity="0.0e+00" res="-0.331359357" rms="0.0e+00" /></Node></Node></Node></Node><Node Cut="6.77890062" IVar="6" NCoef="0" cType="1" depth="2" nType="0" pos="r" purity="0.0e+00" res="0.0e+00" rms="0.0e+00"><Node Cut="0.00120340264" IVar="10" NCoef="0" cType="1" depth="3" nType="0" pos="l" purity="0.0e+00" res="0.0e+00" rms="0.0e+00"><Node Cut="2.8131156" IVar="4" NCoef="0" cType="1" depth="4" nType="0" pos="l" purity="0.0e+00" res="0.0e+00" rms="0.0e+00"><Node Cut="0.00541738654" IVar="11" NCoef="0" cType="1" depth="5" nType="0" pos="l" purity="0.0e+00" res="0.0e+00" rms="0.0e+00"><Node Cut="0.0e+00" IVar="-1" NCoef="0" cType="1" depth="6" nType="-99" pos="l" purity="0.0e+00" res="0.156081036" rms="0.0e+00" /><Node Cut="0.0e+00" IVar="-1" NCoef="0" cType="1" depth="6" nType="-99" pos="r" purity="0.0e+00" res="-0.123969384" rms="0.0e+00" /></Node><Node Cut="11.8299046" IVar="4" NCoef="0" cType="1" depth="5" nType="0" pos="r" purity="0.0e+00" res="0.0e+00" rms="0.0e+00"><Node Cut="0.0e+00" IVar="-1" NCoef="0" cType="1" depth="6" nType="-99" pos="l" purity="0.0e+00" res="-0.149385348" rms="0.0e+00" /><Node Cut="0.0e+00" IVar="-1" NCoef="0" cType="1" depth="6" nType="-99" pos="r" purity="0.0e+00" res="-0.299470156" rms="0.0e+00" /></Node></Node><Node Cut="0.00596173294" IVar="10" NCoef="0" cType="1" depth="4" nType="0" pos="r" purity="0.0e+00" res="0.0e+00" rms="0.0e+00"><Node Cut="0.871494293" IVar="5" NCoef="0" cType="1" depth="5" nType="0" pos="l" purity="0.0e+00" res="0.0e+00" rms="0.0e+00"><Node Cut="0.0e+00" IVar="-1" NCoef="0" cType="1" depth="6" nType="-99" pos="l" purity="0.0e+00" res="-0.0125839002" rms="0.0e+00" /><Node Cut="0.0e+00" IVar="-1" NCoef="0" cType="1" depth="6" nType="-99" pos="r" purity="0.0e+00" res="-0.193402231" rms="0.0e+00" /></Node><Node Cut="2" IVar="2" NCoef="0" cType="1" depth="5" nType="0" pos="r" purity="0.0e+00" res="0.0e+00" rms="0.0e+00"><Node Cut="0.0e+00" IVar="-1" NCoef="0" cType="1" depth="6" nType="-99" pos="l" purity="0.0e+00" res="-0.129674062" rms="0.0e+00" /><Node Cut="0.0e+00" IVar="-1" NCoef="0" cType="1" depth="6" nType="-99" pos="r" purity="0.0e+00" res="-0.310069323" rms="0.0e+00" /></Node></Node></Node><Node Cut="0.00190610928" IVar="10" NCoef="0" cType="1" depth="3" nType="0" pos="r" purity="0.0e+00" res="0.0e+00" rms="0.0e+00"><Node Cut="2.10232067" IVar="4" NCoef="0" cType="1" depth="4" nType="0" pos="l" purity="0.0e+00" res="0.0e+00" rms="0.0e+00"><Node Cut="16.9819565" IVar="6" NCoef="0" cType="1" depth="5" nType="0" pos="l" purity="0.0e+00" res="0.0e+00" rms="0.0e+00"><Node Cut="0.0e+00" IVar="-1" NCoef="0" cType="1" depth="6" nType="-99" pos="l" purity="0.0e+00" res="-0.0792413801" rms="0.0e+00" /><Node Cut="0.0e+00" IVar="-1" NCoef="0" cType="1" depth="6" nType="-99" pos="r" purity="0.0e+00" res="-0.220148191" rms="0.0e+00" /></Node><Node Cut="2.80532408" IVar="4" NCoef="0" cType="1" depth="5" nType="0" pos="r" purity="0.0e+00" res="0.0e+00" rms="0.0e+00"><Node Cut="0.0e+00" IVar="-1" NCoef="0" cType="1" depth="6" nType="-99" pos="l" purity="0.0e+00" res="-0.265616745" rms="0.0e+00" /><Node Cut="0.0e+00" IVar="-1" NCoef="0" cType="1" depth="6" nType="-99" pos="r" purity="0.0e+00" res="-0.329837412" rms="0.0e+00" /></Node></Node><Node Cut="0.00586369075" IVar="10" NCoef="0" cType="1" depth="4" nType="0" pos="r" purity="0.0e+00" res="0.0e+00" rms="0.0e+00"><Node Cut="12.5167522" IVar="6" NCoef="0" cType="1" depth="5" nType="0" pos="l" purity="0.0e+00" res="0.0e+00" rms="0.0e+00"><Node Cut="0.0e+00" IVar="-1" NCoef="0" cType="1" depth="6" nType="-99" pos="l" purity="0.0e+00" res="-0.238198981" rms="0.0e+00" /><Node Cut="0.0e+00" IVar="-1" NCoef="0" cType="1" depth="6" nType="-99" pos="r" purity="0.0e+00" res="-0.305209368" rms="0.0e+00" /></Node><Node Cut="0.891899705" IVar="11" NCoef="0" cType="1" depth="5" nType="0" pos="r" purity="0.0e+00" res="0.0e+00" rms="0.0e+00"><Node Cut="0.0e+00" IVar="-1" NCoef="0" cType="1" depth="6" nType="-99" pos="l" purity="0.0e+00" res="-0.329082698" rms="0.0e+00" /><Node Cut="0.0e+00" IVar="-1" NCoef="0" cType="1" depth="6" nType="-99" pos="r" purity="0.0e+00" res="-0.156155795" rms="0.0e+00" /></Node></Node></Node></Node></Node></Node></BinaryTree><BinaryTree boostWeight="1.0e+00" itree="6" type="DecisionTree"><Node Cut="11" IVar="1" NCoef="0" cType="1" depth="0" nType="0" pos="s" purity="0.0e+00" res="0.0e+00" rms="0.0e+00"><Node Cut="2.70313787" IVar="6" NCoef="0" cType="1" depth="1" nType="0" pos="l" purity="0.0e+00" res="0.0e+00" rms="0.0e+00"><Node Cut="0.00201333431" IVar="10" NCoef="0" cType="1" depth="2" nType="0" pos="l" purity="0.0e+00" res="0.0e+00" rms="0.0e+00"><Node Cut="3.2306428" IVar="5" NCoef="0" cType="1" depth="3" nType="0" pos="l" purity="0.0e+00" res="0.0e+00" rms="0.0e+00"><Node Cut="6" IVar="1" NCoef="0" cType="1" depth="4" nType="0" pos="l" purity="0.0e+00" res="0.0e+00" rms="0.0e+00"><Node Cut="-1.20043373" IVar="0" NCoef="0" cType="1" depth="5" nType="0" pos="l" purity="0.0e+00" res="0.0e+00" rms="0.0e+00"><Node Cut="0.0e+00" IVar="-1" NCoef="0" cType="1" depth="6" nType="-99" pos="l" purity="0.0e+00" res="-0.269417763" rms="0.0e+00" /><Node Cut="0.0e+00" IVar="-1" NCoef="0" cType="1" depth="6" nType="-99" pos="r" purity="0.0e+00" res="-0.0714252815" rms="0.0e+00" /></Node><Node Cut="3.20510292" IVar="4" NCoef="0" cType="1" depth="5" nType="0" pos="r" purity="0.0e+00" res="0.0e+00" rms="0.0e+00"><Node Cut="0.0e+00" IVar="-1" NCoef="0" cType="1" depth="6" nType="-99" pos="l" purity="0.0e+00" res="0.445993334" rms="0.0e+00" /><Node Cut="0.0e+00" IVar="-1" NCoef="0" cType="1" depth="6" nType="-99" pos="r" purity="0.0e+00" res="-0.132653907" rms="0.0e+00" /></Node></Node><Node Cut="7.10962152" IVar="5" NCoef="0" cType="1" depth="4" nType="0" pos="r" purity="0.0e+00" res="0.0e+00" rms="0.0e+00"><Node Cut="9" IVar="1" NCoef="0" cType="1" depth="5" nType="0" pos="l" purity="0.0e+00" res="0.0e+00" rms="0.0e+00"><Node Cut="0.0e+00" IVar="-1" NCoef="0" cType="1" depth="6" nType="-99" pos="l" purity="0.0e+00" res="-0.260965943" rms="0.0e+00" /><Node Cut="0.0e+00" 